digraph Tree {
node [shape=box] ;
0 [label="NumberOfContracts <= 1.5\ngini = 0.5\nsamples = 8121\nvalue = [6357, 6427]"] ;
1 [label="Age <= 29.5\ngini = 0.481\nsamples = 4050\nvalue = [2545, 3795]"] ;
0 -> 1 [labeldistance=2.5, labelangle=45, headlabel="True"] ;
2 [label="CustomerValueSegment <= 0.5\ngini = 0.47\nsamples = 3702\nvalue = [2193, 3606]"] ;
1 -> 2 ;
3 [label="ChurnScore <= 2.5\ngini = 0.384\nsamples = 561\nvalue = [226, 647]"] ;
2 -> 3 ;
4 [label="SentimentRating <= 2.5\ngini = 0.259\nsamples = 402\nvalue = [96, 532]"] ;
3 -> 4 ;
5 [label="Products <= 2.5\ngini = 0.179\nsamples = 357\nvalue = [55, 500]"] ;
4 -> 5 ;
6 [label="Available401K <= 0.5\ngini = 0.03\nsamples = 82\nvalue = [2, 128]"] ;
5 -> 6 ;
7 [label="ChurnScore <= 1.5\ngini = 0.053\nsamples = 25\nvalue = [1, 36]"] ;
6 -> 7 ;
8 [label="gini = 0.0\nsamples = 15\nvalue = [0, 21]"] ;
7 -> 8 ;
9 [label="NumberOfContracts <= 0.5\ngini = 0.117\nsamples = 10\nvalue = [1, 15]"] ;
7 -> 9 ;
10 [label="Age <= 3.0\ngini = 0.245\nsamples = 5\nvalue = [1, 6]"] ;
9 -> 10 ;
11 [label="MaritalStatus <= 0.5\ngini = 0.5\nsamples = 2\nvalue = [1, 1]"] ;
10 -> 11 ;
12 [label="gini = 0.0\nsamples = 1\nvalue = [0, 1]"] ;
11 -> 12 ;
13 [label="gini = 0.0\nsamples = 1\nvalue = [1, 0]"] ;
11 -> 13 ;
14 [label="gini = 0.0\nsamples = 3\nvalue = [0, 5]"] ;
10 -> 14 ;
15 [label="gini = 0.0\nsamples = 5\nvalue = [0, 9]"] ;
9 -> 15 ;
16 [label="EstimatedYearlyIncome <= 8.5\ngini = 0.021\nsamples = 57\nvalue = [1, 92]"] ;
6 -> 16 ;
17 [label="Age <= 11.5\ngini = 0.042\nsamples = 29\nvalue = [1, 46]"] ;
16 -> 17 ;
18 [label="gini = 0.0\nsamples = 17\nvalue = [0, 29]"] ;
17 -> 18 ;
19 [label="MaritalStatus <= 0.5\ngini = 0.105\nsamples = 12\nvalue = [1, 17]"] ;
17 -> 19 ;
20 [label="Gender <= 0.5\ngini = 0.133\nsamples = 9\nvalue = [1, 13]"] ;
19 -> 20 ;
21 [label="gini = 0.0\nsamples = 4\nvalue = [0, 4]"] ;
20 -> 21 ;
22 [label="CallActivity <= 3.5\ngini = 0.18\nsamples = 5\nvalue = [1, 9]"] ;
20 -> 22 ;
23 [label="gini = 0.0\nsamples = 1\nvalue = [0, 2]"] ;
22 -> 23 ;
24 [label="SentimentRating <= 1.5\ngini = 0.219\nsamples = 4\nvalue = [1, 7]"] ;
22 -> 24 ;
25 [label="gini = 0.278\nsamples = 3\nvalue = [1, 5]"] ;
24 -> 25 ;
26 [label="gini = 0.0\nsamples = 1\nvalue = [0, 2]"] ;
24 -> 26 ;
27 [label="gini = 0.0\nsamples = 3\nvalue = [0, 4]"] ;
19 -> 27 ;
28 [label="gini = 0.0\nsamples = 28\nvalue = [0, 46]"] ;
16 -> 28 ;
29 [label="MaritalStatus <= 0.5\ngini = 0.218\nsamples = 275\nvalue = [53, 372]"] ;
5 -> 29 ;
30 [label="NumberOfContracts <= 0.5\ngini = 0.352\nsamples = 137\nvalue = [47, 159]"] ;
29 -> 30 ;
31 [label="Gender <= 0.5\ngini = 0.193\nsamples = 54\nvalue = [9, 74]"] ;
30 -> 31 ;
32 [label="Available401K <= 0.5\ngini = 0.249\nsamples = 28\nvalue = [7, 41]"] ;
31 -> 32 ;
33 [label="Age <= 2.5\ngini = 0.105\nsamples = 11\nvalue = [1, 17]"] ;
32 -> 33 ;
34 [label="gini = 0.0\nsamples = 5\nvalue = [0, 8]"] ;
33 -> 34 ;
35 [label="Age <= 3.5\ngini = 0.18\nsamples = 6\nvalue = [1, 9]"] ;
33 -> 35 ;
36 [label="gini = 0.278\nsamples = 3\nvalue = [1, 5]"] ;
35 -> 36 ;
37 [label="gini = 0.0\nsamples = 3\nvalue = [0, 4]"] ;
35 -> 37 ;
38 [label="CallActivity <= 2.0\ngini = 0.32\nsamples = 17\nvalue = [6, 24]"] ;
32 -> 38 ;
39 [label="Products <= 3.5\ngini = 0.42\nsamples = 11\nvalue = [6, 14]"] ;
38 -> 39 ;
40 [label="gini = 0.0\nsamples = 1\nvalue = [0, 1]"] ;
39 -> 40 ;
41 [label="CallActivity <= 0.5\ngini = 0.432\nsamples = 10\nvalue = [6, 13]"] ;
39 -> 41 ;
42 [label="gini = 0.0\nsamples = 3\nvalue = [0, 5]"] ;
41 -> 42 ;
43 [label="Age <= 0.5\ngini = 0.49\nsamples = 7\nvalue = [6, 8]"] ;
41 -> 43 ;
44 [label="gini = 0.0\nsamples = 1\nvalue = [1, 0]"] ;
43 -> 44 ;
45 [label="Age <= 2.5\ngini = 0.473\nsamples = 6\nvalue = [5, 8]"] ;
43 -> 45 ;
46 [label="Age <= 1.5\ngini = 0.278\nsamples = 4\nvalue = [1, 5]"] ;
45 -> 46 ;
47 [label="gini = 0.5\nsamples = 2\nvalue = [1, 1]"] ;
46 -> 47 ;
48 [label="gini = 0.0\nsamples = 2\nvalue = [0, 4]"] ;
46 -> 48 ;
49 [label="gini = 0.49\nsamples = 2\nvalue = [4, 3]"] ;
45 -> 49 ;
50 [label="gini = 0.0\nsamples = 6\nvalue = [0, 10]"] ;
38 -> 50 ;
51 [label="Available401K <= 0.5\ngini = 0.108\nsamples = 26\nvalue = [2, 33]"] ;
31 -> 51 ;
52 [label="EstimatedYearlyIncome <= 9.0\ngini = 0.219\nsamples = 6\nvalue = [1, 7]"] ;
51 -> 52 ;
53 [label="gini = 0.0\nsamples = 5\nvalue = [0, 7]"] ;
52 -> 53 ;
54 [label="gini = 0.0\nsamples = 1\nvalue = [1, 0]"] ;
52 -> 54 ;
55 [label="Products <= 3.5\ngini = 0.071\nsamples = 20\nvalue = [1, 26]"] ;
51 -> 55 ;
56 [label="gini = 0.0\nsamples = 1\nvalue = [0, 1]"] ;
55 -> 56 ;
57 [label="ChurnScore <= 0.5\ngini = 0.074\nsamples = 19\nvalue = [1, 25]"] ;
55 -> 57 ;
58 [label="CallActivity <= 0.5\ngini = 0.105\nsamples = 13\nvalue = [1, 17]"] ;
57 -> 58 ;
59 [label="gini = 0.0\nsamples = 2\nvalue = [0, 2]"] ;
58 -> 59 ;
60 [label="Age <= 2.5\ngini = 0.117\nsamples = 11\nvalue = [1, 15]"] ;
58 -> 60 ;
61 [label="Age <= 1.5\ngini = 0.245\nsamples = 5\nvalue = [1, 6]"] ;
60 -> 61 ;
62 [label="gini = 0.0\nsamples = 1\nvalue = [0, 1]"] ;
61 -> 62 ;
63 [label="gini = 0.278\nsamples = 4\nvalue = [1, 5]"] ;
61 -> 63 ;
64 [label="gini = 0.0\nsamples = 6\nvalue = [0, 9]"] ;
60 -> 64 ;
65 [label="gini = 0.0\nsamples = 6\nvalue = [0, 8]"] ;
57 -> 65 ;
66 [label="Age <= 18.5\ngini = 0.427\nsamples = 83\nvalue = [38, 85]"] ;
30 -> 66 ;
67 [label="CallActivity <= 0.5\ngini = 0.478\nsamples = 55\nvalue = [32, 49]"] ;
66 -> 67 ;
68 [label="Available401K <= 0.5\ngini = 0.498\nsamples = 21\nvalue = [15, 17]"] ;
67 -> 68 ;
69 [label="ChurnScore <= 0.5\ngini = 0.475\nsamples = 11\nvalue = [11, 7]"] ;
68 -> 69 ;
70 [label="Age <= 1.5\ngini = 0.49\nsamples = 7\nvalue = [8, 6]"] ;
69 -> 70 ;
71 [label="Gender <= 0.5\ngini = 0.48\nsamples = 6\nvalue = [4, 6]"] ;
70 -> 71 ;
72 [label="gini = 0.49\nsamples = 5\nvalue = [4, 3]"] ;
71 -> 72 ;
73 [label="gini = 0.0\nsamples = 1\nvalue = [0, 3]"] ;
71 -> 73 ;
74 [label="gini = 0.0\nsamples = 1\nvalue = [4, 0]"] ;
70 -> 74 ;
75 [label="ChurnScore <= 1.5\ngini = 0.375\nsamples = 4\nvalue = [3, 1]"] ;
69 -> 75 ;
76 [label="gini = 0.0\nsamples = 1\nvalue = [1, 0]"] ;
75 -> 76 ;
77 [label="Age <= 2.5\ngini = 0.444\nsamples = 3\nvalue = [2, 1]"] ;
75 -> 77 ;
78 [label="gini = 0.0\nsamples = 1\nvalue = [1, 0]"] ;
77 -> 78 ;
79 [label="Age <= 3.5\ngini = 0.5\nsamples = 2\nvalue = [1, 1]"] ;
77 -> 79 ;
80 [label="gini = 0.0\nsamples = 1\nvalue = [0, 1]"] ;
79 -> 80 ;
81 [label="gini = 0.0\nsamples = 1\nvalue = [1, 0]"] ;
79 -> 81 ;
82 [label="Age <= 2.5\ngini = 0.408\nsamples = 10\nvalue = [4, 10]"] ;
68 -> 82 ;
83 [label="ChurnScore <= 1.0\ngini = 0.32\nsamples = 7\nvalue = [2, 8]"] ;
82 -> 83 ;
84 [label="gini = 0.0\nsamples = 2\nvalue = [0, 3]"] ;
83 -> 84 ;
85 [label="Gender <= 0.5\ngini = 0.408\nsamples = 5\nvalue = [2, 5]"] ;
83 -> 85 ;
86 [label="gini = 0.0\nsamples = 1\nvalue = [0, 2]"] ;
85 -> 86 ;
87 [label="Age <= 1.5\ngini = 0.48\nsamples = 4\nvalue = [2, 3]"] ;
85 -> 87 ;
88 [label="gini = 0.375\nsamples = 3\nvalue = [1, 3]"] ;
87 -> 88 ;
89 [label="gini = 0.0\nsamples = 1\nvalue = [1, 0]"] ;
87 -> 89 ;
90 [label="ChurnScore <= 1.5\ngini = 0.5\nsamples = 3\nvalue = [2, 2]"] ;
82 -> 90 ;
91 [label="gini = 0.0\nsamples = 1\nvalue = [1, 0]"] ;
90 -> 91 ;
92 [label="gini = 0.444\nsamples = 2\nvalue = [1, 2]"] ;
90 -> 92 ;
93 [label="Age <= 15.0\ngini = 0.453\nsamples = 34\nvalue = [17, 32]"] ;
67 -> 93 ;
94 [label="ChurnScore <= 1.0\ngini = 0.327\nsamples = 24\nvalue = [7, 27]"] ;
93 -> 94 ;
95 [label="gini = 0.0\nsamples = 5\nvalue = [0, 7]"] ;
94 -> 95 ;
96 [label="Products <= 3.5\ngini = 0.384\nsamples = 19\nvalue = [7, 20]"] ;
94 -> 96 ;
97 [label="Available401K <= 0.5\ngini = 0.444\nsamples = 5\nvalue = [2, 4]"] ;
96 -> 97 ;
98 [label="gini = 0.0\nsamples = 1\nvalue = [0, 1]"] ;
97 -> 98 ;
99 [label="Age <= 2.0\ngini = 0.48\nsamples = 4\nvalue = [2, 3]"] ;
97 -> 99 ;
100 [label="Gender <= 0.5\ngini = 0.5\nsamples = 3\nvalue = [2, 2]"] ;
99 -> 100 ;
101 [label="gini = 0.444\nsamples = 2\nvalue = [2, 1]"] ;
100 -> 101 ;
102 [label="gini = 0.0\nsamples = 1\nvalue = [0, 1]"] ;
100 -> 102 ;
103 [label="gini = 0.0\nsamples = 1\nvalue = [0, 1]"] ;
99 -> 103 ;
104 [label="Available401K <= 0.5\ngini = 0.363\nsamples = 14\nvalue = [5, 16]"] ;
96 -> 104 ;
105 [label="gini = 0.0\nsamples = 4\nvalue = [0, 6]"] ;
104 -> 105 ;
106 [label="Age <= 13.5\ngini = 0.444\nsamples = 10\nvalue = [5, 10]"] ;
104 -> 106 ;
107 [label="Gender <= 0.5\ngini = 0.459\nsamples = 9\nvalue = [5, 9]"] ;
106 -> 107 ;
108 [label="Age <= 12.5\ngini = 0.278\nsamples = 4\nvalue = [1, 5]"] ;
107 -> 108 ;
109 [label="gini = 0.0\nsamples = 2\nvalue = [0, 3]"] ;
108 -> 109 ;
110 [label="gini = 0.444\nsamples = 2\nvalue = [1, 2]"] ;
108 -> 110 ;
111 [label="Age <= 12.5\ngini = 0.5\nsamples = 5\nvalue = [4, 4]"] ;
107 -> 111 ;
112 [label="gini = 0.0\nsamples = 1\nvalue = [2, 0]"] ;
111 -> 112 ;
113 [label="gini = 0.444\nsamples = 4\nvalue = [2, 4]"] ;
111 -> 113 ;
114 [label="gini = 0.0\nsamples = 1\nvalue = [0, 1]"] ;
106 -> 114 ;
115 [label="Available401K <= 0.5\ngini = 0.444\nsamples = 10\nvalue = [10, 5]"] ;
93 -> 115 ;
116 [label="gini = 0.0\nsamples = 2\nvalue = [2, 0]"] ;
115 -> 116 ;
117 [label="EstimatedYearlyIncome <= 6.5\ngini = 0.473\nsamples = 8\nvalue = [8, 5]"] ;
115 -> 117 ;
118 [label="ChurnScore <= 1.0\ngini = 0.397\nsamples = 7\nvalue = [8, 3]"] ;
117 -> 118 ;
119 [label="SentimentRating <= 0.5\ngini = 0.5\nsamples = 4\nvalue = [3, 3]"] ;
118 -> 119 ;
120 [label="gini = 0.0\nsamples = 3\nvalue = [3, 0]"] ;
119 -> 120 ;
121 [label="gini = 0.0\nsamples = 1\nvalue = [0, 3]"] ;
119 -> 121 ;
122 [label="gini = 0.0\nsamples = 3\nvalue = [5, 0]"] ;
118 -> 122 ;
123 [label="gini = 0.0\nsamples = 1\nvalue = [0, 2]"] ;
117 -> 123 ;
124 [label="Age <= 21.5\ngini = 0.245\nsamples = 28\nvalue = [6, 36]"] ;
66 -> 124 ;
125 [label="gini = 0.0\nsamples = 20\nvalue = [0, 32]"] ;
124 -> 125 ;
126 [label="Age <= 22.5\ngini = 0.48\nsamples = 8\nvalue = [6, 4]"] ;
124 -> 126 ;
127 [label="ChurnScore <= 1.5\ngini = 0.32\nsamples = 3\nvalue = [4, 1]"] ;
126 -> 127 ;
128 [label="gini = 0.0\nsamples = 1\nvalue = [2, 0]"] ;
127 -> 128 ;
129 [label="EstimatedYearlyIncome <= 9.0\ngini = 0.444\nsamples = 2\nvalue = [2, 1]"] ;
127 -> 129 ;
130 [label="gini = 0.0\nsamples = 1\nvalue = [0, 1]"] ;
129 -> 130 ;
131 [label="gini = 0.0\nsamples = 1\nvalue = [2, 0]"] ;
129 -> 131 ;
132 [label="CallActivity <= 3.5\ngini = 0.48\nsamples = 5\nvalue = [2, 3]"] ;
126 -> 132 ;
133 [label="gini = 0.0\nsamples = 2\nvalue = [0, 2]"] ;
132 -> 133 ;
134 [label="Gender <= 0.5\ngini = 0.444\nsamples = 3\nvalue = [2, 1]"] ;
132 -> 134 ;
135 [label="gini = 0.0\nsamples = 1\nvalue = [0, 1]"] ;
134 -> 135 ;
136 [label="gini = 0.0\nsamples = 2\nvalue = [2, 0]"] ;
134 -> 136 ;
137 [label="Available401K <= 0.5\ngini = 0.053\nsamples = 138\nvalue = [6, 213]"] ;
29 -> 137 ;
138 [label="CallActivity <= 2.5\ngini = 0.017\nsamples = 72\nvalue = [1, 117]"] ;
137 -> 138 ;
139 [label="gini = 0.0\nsamples = 39\nvalue = [0, 66]"] ;
138 -> 139 ;
140 [label="SentimentRating <= 1.5\ngini = 0.038\nsamples = 33\nvalue = [1, 51]"] ;
138 -> 140 ;
141 [label="gini = 0.0\nsamples = 24\nvalue = [0, 38]"] ;
140 -> 141 ;
142 [label="Gender <= 0.5\ngini = 0.133\nsamples = 9\nvalue = [1, 13]"] ;
140 -> 142 ;
143 [label="gini = 0.0\nsamples = 5\nvalue = [0, 7]"] ;
142 -> 143 ;
144 [label="ChurnScore <= 1.0\ngini = 0.245\nsamples = 4\nvalue = [1, 6]"] ;
142 -> 144 ;
145 [label="gini = 0.0\nsamples = 1\nvalue = [0, 2]"] ;
144 -> 145 ;
146 [label="WebActivity <= 1.0\ngini = 0.32\nsamples = 3\nvalue = [1, 4]"] ;
144 -> 146 ;
147 [label="gini = 0.0\nsamples = 1\nvalue = [0, 1]"] ;
146 -> 147 ;
148 [label="gini = 0.375\nsamples = 2\nvalue = [1, 3]"] ;
146 -> 148 ;
149 [label="Age <= 3.5\ngini = 0.094\nsamples = 66\nvalue = [5, 96]"] ;
137 -> 149 ;
150 [label="Age <= 2.5\ngini = 0.238\nsamples = 19\nvalue = [4, 25]"] ;
149 -> 150 ;
151 [label="CallActivity <= 0.5\ngini = 0.188\nsamples = 10\nvalue = [2, 17]"] ;
150 -> 151 ;
152 [label="Gender <= 0.5\ngini = 0.142\nsamples = 7\nvalue = [1, 12]"] ;
151 -> 152 ;
153 [label="gini = 0.0\nsamples = 1\nvalue = [0, 1]"] ;
152 -> 153 ;
154 [label="Products <= 3.5\ngini = 0.153\nsamples = 6\nvalue = [1, 11]"] ;
152 -> 154 ;
155 [label="ChurnScore <= 0.5\ngini = 0.165\nsamples = 5\nvalue = [1, 10]"] ;
154 -> 155 ;
156 [label="gini = 0.0\nsamples = 2\nvalue = [0, 3]"] ;
155 -> 156 ;
157 [label="gini = 0.219\nsamples = 3\nvalue = [1, 7]"] ;
155 -> 157 ;
158 [label="gini = 0.0\nsamples = 1\nvalue = [0, 1]"] ;
154 -> 158 ;
159 [label="Gender <= 0.5\ngini = 0.278\nsamples = 3\nvalue = [1, 5]"] ;
151 -> 159 ;
160 [label="gini = 0.0\nsamples = 1\nvalue = [1, 0]"] ;
159 -> 160 ;
161 [label="gini = 0.0\nsamples = 2\nvalue = [0, 5]"] ;
159 -> 161 ;
162 [label="Gender <= 0.5\ngini = 0.32\nsamples = 9\nvalue = [2, 8]"] ;
150 -> 162 ;
163 [label="gini = 0.0\nsamples = 4\nvalue = [0, 4]"] ;
162 -> 163 ;
164 [label="NumberOfContracts <= 0.5\ngini = 0.444\nsamples = 5\nvalue = [2, 4]"] ;
162 -> 164 ;
165 [label="gini = 0.444\nsamples = 2\nvalue = [2, 1]"] ;
164 -> 165 ;
166 [label="gini = 0.0\nsamples = 3\nvalue = [0, 3]"] ;
164 -> 166 ;
167 [label="WebActivity <= 1.0\ngini = 0.027\nsamples = 47\nvalue = [1, 71]"] ;
149 -> 167 ;
168 [label="gini = 0.0\nsamples = 31\nvalue = [0, 43]"] ;
167 -> 168 ;
169 [label="ChurnScore <= 1.0\ngini = 0.067\nsamples = 16\nvalue = [1, 28]"] ;
167 -> 169 ;
170 [label="Age <= 13.5\ngini = 0.087\nsamples = 10\nvalue = [1, 21]"] ;
169 -> 170 ;
171 [label="Age <= 12.5\ngini = 0.124\nsamples = 8\nvalue = [1, 14]"] ;
170 -> 171 ;
172 [label="gini = 0.0\nsamples = 2\nvalue = [0, 5]"] ;
171 -> 172 ;
173 [label="Gender <= 0.5\ngini = 0.18\nsamples = 6\nvalue = [1, 9]"] ;
171 -> 173 ;
174 [label="gini = 0.0\nsamples = 3\nvalue = [0, 7]"] ;
173 -> 174 ;
175 [label="CallActivity <= 3.5\ngini = 0.444\nsamples = 3\nvalue = [1, 2]"] ;
173 -> 175 ;
176 [label="gini = 0.5\nsamples = 2\nvalue = [1, 1]"] ;
175 -> 176 ;
177 [label="gini = 0.0\nsamples = 1\nvalue = [0, 1]"] ;
175 -> 177 ;
178 [label="gini = 0.0\nsamples = 2\nvalue = [0, 7]"] ;
170 -> 178 ;
179 [label="gini = 0.0\nsamples = 6\nvalue = [0, 7]"] ;
169 -> 179 ;
180 [label="EstimatedYearlyIncome <= 6.0\ngini = 0.492\nsamples = 45\nvalue = [41, 32]"] ;
4 -> 180 ;
181 [label="Age <= 15.5\ngini = 0.225\nsamples = 15\nvalue = [27, 4]"] ;
180 -> 181 ;
182 [label="gini = 0.0\nsamples = 2\nvalue = [5, 0]"] ;
181 -> 182 ;
183 [label="ChurnScore <= 1.0\ngini = 0.26\nsamples = 13\nvalue = [22, 4]"] ;
181 -> 183 ;
184 [label="Available401K <= 0.5\ngini = 0.1\nsamples = 9\nvalue = [18, 1]"] ;
183 -> 184 ;
185 [label="SentimentRating <= 3.5\ngini = 0.278\nsamples = 4\nvalue = [5, 1]"] ;
184 -> 185 ;
186 [label="Gender <= 0.5\ngini = 0.444\nsamples = 3\nvalue = [2, 1]"] ;
185 -> 186 ;
187 [label="gini = 0.0\nsamples = 1\nvalue = [1, 0]"] ;
186 -> 187 ;
188 [label="gini = 0.5\nsamples = 2\nvalue = [1, 1]"] ;
186 -> 188 ;
189 [label="gini = 0.0\nsamples = 1\nvalue = [3, 0]"] ;
185 -> 189 ;
190 [label="gini = 0.0\nsamples = 5\nvalue = [13, 0]"] ;
184 -> 190 ;
191 [label="Gender <= 0.5\ngini = 0.49\nsamples = 4\nvalue = [4, 3]"] ;
183 -> 191 ;
192 [label="gini = 0.0\nsamples = 1\nvalue = [1, 0]"] ;
191 -> 192 ;
193 [label="Available401K <= 0.5\ngini = 0.5\nsamples = 3\nvalue = [3, 3]"] ;
191 -> 193 ;
194 [label="gini = 0.0\nsamples = 1\nvalue = [2, 0]"] ;
193 -> 194 ;
195 [label="gini = 0.375\nsamples = 2\nvalue = [1, 3]"] ;
193 -> 195 ;
196 [label="EstimatedYearlyIncome <= 7.5\ngini = 0.444\nsamples = 30\nvalue = [14, 28]"] ;
180 -> 196 ;
197 [label="Age <= 11.5\ngini = 0.26\nsamples = 17\nvalue = [4, 22]"] ;
196 -> 197 ;
198 [label="Available401K <= 0.5\ngini = 0.444\nsamples = 8\nvalue = [4, 8]"] ;
197 -> 198 ;
199 [label="Age <= 10.5\ngini = 0.5\nsamples = 2\nvalue = [1, 1]"] ;
198 -> 199 ;
200 [label="gini = 0.0\nsamples = 1\nvalue = [0, 1]"] ;
199 -> 200 ;
201 [label="gini = 0.0\nsamples = 1\nvalue = [1, 0]"] ;
199 -> 201 ;
202 [label="NumberOfContracts <= 0.5\ngini = 0.42\nsamples = 6\nvalue = [3, 7]"] ;
198 -> 202 ;
203 [label="gini = 0.0\nsamples = 1\nvalue = [0, 2]"] ;
202 -> 203 ;
204 [label="MaritalStatus <= 0.5\ngini = 0.469\nsamples = 5\nvalue = [3, 5]"] ;
202 -> 204 ;
205 [label="Gender <= 0.5\ngini = 0.49\nsamples = 4\nvalue = [3, 4]"] ;
204 -> 205 ;
206 [label="gini = 0.5\nsamples = 3\nvalue = [3, 3]"] ;
205 -> 206 ;
207 [label="gini = 0.0\nsamples = 1\nvalue = [0, 1]"] ;
205 -> 207 ;
208 [label="gini = 0.0\nsamples = 1\nvalue = [0, 1]"] ;
204 -> 208 ;
209 [label="gini = 0.0\nsamples = 9\nvalue = [0, 14]"] ;
197 -> 209 ;
210 [label="CallActivity <= 3.5\ngini = 0.469\nsamples = 13\nvalue = [10, 6]"] ;
196 -> 210 ;
211 [label="WebActivity <= 3.5\ngini = 0.48\nsamples = 12\nvalue = [9, 6]"] ;
210 -> 211 ;
212 [label="ChurnScore <= 0.5\ngini = 0.278\nsamples = 5\nvalue = [1, 5]"] ;
211 -> 212 ;
213 [label="gini = 0.0\nsamples = 1\nvalue = [1, 0]"] ;
212 -> 213 ;
214 [label="gini = 0.0\nsamples = 4\nvalue = [0, 5]"] ;
212 -> 214 ;
215 [label="Gender <= 0.5\ngini = 0.198\nsamples = 7\nvalue = [8, 1]"] ;
211 -> 215 ;
216 [label="Age <= 13.5\ngini = 0.278\nsamples = 5\nvalue = [5, 1]"] ;
215 -> 216 ;
217 [label="gini = 0.0\nsamples = 2\nvalue = [2, 0]"] ;
216 -> 217 ;
218 [label="ChurnScore <= 0.5\ngini = 0.375\nsamples = 3\nvalue = [3, 1]"] ;
216 -> 218 ;
219 [label="gini = 0.0\nsamples = 2\nvalue = [3, 0]"] ;
218 -> 219 ;
220 [label="gini = 0.0\nsamples = 1\nvalue = [0, 1]"] ;
218 -> 220 ;
221 [label="gini = 0.0\nsamples = 2\nvalue = [3, 0]"] ;
215 -> 221 ;
222 [label="gini = 0.0\nsamples = 1\nvalue = [1, 0]"] ;
210 -> 222 ;
223 [label="ChurnScore <= 3.5\ngini = 0.498\nsamples = 159\nvalue = [130, 115]"] ;
3 -> 223 ;
224 [label="Products <= 3.5\ngini = 0.5\nsamples = 151\nvalue = [118, 115]"] ;
223 -> 224 ;
225 [label="WebActivity <= 0.5\ngini = 0.493\nsamples = 60\nvalue = [44, 56]"] ;
224 -> 225 ;
226 [label="Available401K <= 0.5\ngini = 0.497\nsamples = 58\nvalue = [44, 52]"] ;
225 -> 226 ;
227 [label="Age <= 19.5\ngini = 0.492\nsamples = 13\nvalue = [9, 7]"] ;
226 -> 227 ;
228 [label="gini = 0.0\nsamples = 2\nvalue = [4, 0]"] ;
227 -> 228 ;
229 [label="EstimatedYearlyIncome <= 5.5\ngini = 0.486\nsamples = 11\nvalue = [5, 7]"] ;
227 -> 229 ;
230 [label="MaritalStatus <= 0.5\ngini = 0.42\nsamples = 9\nvalue = [3, 7]"] ;
229 -> 230 ;
231 [label="Age <= 20.5\ngini = 0.48\nsamples = 4\nvalue = [3, 2]"] ;
230 -> 231 ;
232 [label="Gender <= 0.5\ngini = 0.444\nsamples = 2\nvalue = [2, 1]"] ;
231 -> 232 ;
233 [label="gini = 0.0\nsamples = 1\nvalue = [2, 0]"] ;
232 -> 233 ;
234 [label="gini = 0.0\nsamples = 1\nvalue = [0, 1]"] ;
232 -> 234 ;
235 [label="Gender <= 0.5\ngini = 0.5\nsamples = 2\nvalue = [1, 1]"] ;
231 -> 235 ;
236 [label="gini = 0.0\nsamples = 1\nvalue = [0, 1]"] ;
235 -> 236 ;
237 [label="gini = 0.0\nsamples = 1\nvalue = [1, 0]"] ;
235 -> 237 ;
238 [label="gini = 0.0\nsamples = 5\nvalue = [0, 5]"] ;
230 -> 238 ;
239 [label="gini = 0.0\nsamples = 2\nvalue = [2, 0]"] ;
229 -> 239 ;
240 [label="Age <= 19.5\ngini = 0.492\nsamples = 45\nvalue = [35, 45]"] ;
226 -> 240 ;
241 [label="Gender <= 0.5\ngini = 0.278\nsamples = 8\nvalue = [2, 10]"] ;
240 -> 241 ;
242 [label="gini = 0.0\nsamples = 4\nvalue = [0, 6]"] ;
241 -> 242 ;
243 [label="Age <= 15.5\ngini = 0.444\nsamples = 4\nvalue = [2, 4]"] ;
241 -> 243 ;
244 [label="gini = 0.0\nsamples = 1\nvalue = [2, 0]"] ;
243 -> 244 ;
245 [label="gini = 0.0\nsamples = 3\nvalue = [0, 4]"] ;
243 -> 245 ;
246 [label="Age <= 22.0\ngini = 0.5\nsamples = 37\nvalue = [33, 35]"] ;
240 -> 246 ;
247 [label="CallActivity <= 3.0\ngini = 0.49\nsamples = 26\nvalue = [21, 28]"] ;
246 -> 247 ;
248 [label="Gender <= 0.5\ngini = 0.494\nsamples = 25\nvalue = [21, 26]"] ;
247 -> 248 ;
249 [label="Age <= 20.5\ngini = 0.375\nsamples = 14\nvalue = [7, 21]"] ;
248 -> 249 ;
250 [label="MaritalStatus <= 0.5\ngini = 0.332\nsamples = 8\nvalue = [4, 15]"] ;
249 -> 250 ;
251 [label="gini = 0.5\nsamples = 2\nvalue = [2, 2]"] ;
250 -> 251 ;
252 [label="gini = 0.231\nsamples = 6\nvalue = [2, 13]"] ;
250 -> 252 ;
253 [label="MaritalStatus <= 0.5\ngini = 0.444\nsamples = 6\nvalue = [3, 6]"] ;
249 -> 253 ;
254 [label="gini = 0.375\nsamples = 2\nvalue = [3, 1]"] ;
253 -> 254 ;
255 [label="gini = 0.0\nsamples = 4\nvalue = [0, 5]"] ;
253 -> 255 ;
256 [label="MaritalStatus <= 0.5\ngini = 0.388\nsamples = 11\nvalue = [14, 5]"] ;
248 -> 256 ;
257 [label="Age <= 20.5\ngini = 0.291\nsamples = 10\nvalue = [14, 3]"] ;
256 -> 257 ;
258 [label="gini = 0.142\nsamples = 7\nvalue = [12, 1]"] ;
257 -> 258 ;
259 [label="gini = 0.5\nsamples = 3\nvalue = [2, 2]"] ;
257 -> 259 ;
260 [label="gini = 0.0\nsamples = 1\nvalue = [0, 2]"] ;
256 -> 260 ;
261 [label="gini = 0.0\nsamples = 1\nvalue = [0, 2]"] ;
247 -> 261 ;
262 [label="EstimatedYearlyIncome <= 6.5\ngini = 0.465\nsamples = 11\nvalue = [12, 7]"] ;
246 -> 262 ;
263 [label="Age <= 23.5\ngini = 0.457\nsamples = 9\nvalue = [11, 6]"] ;
262 -> 263 ;
264 [label="gini = 0.0\nsamples = 2\nvalue = [2, 0]"] ;
263 -> 264 ;
265 [label="Gender <= 0.5\ngini = 0.48\nsamples = 7\nvalue = [9, 6]"] ;
263 -> 265 ;
266 [label="Age <= 24.5\ngini = 0.49\nsamples = 3\nvalue = [3, 4]"] ;
265 -> 266 ;
267 [label="MaritalStatus <= 0.5\ngini = 0.48\nsamples = 2\nvalue = [3, 2]"] ;
266 -> 267 ;
268 [label="gini = 0.0\nsamples = 1\nvalue = [0, 2]"] ;
267 -> 268 ;
269 [label="gini = 0.0\nsamples = 1\nvalue = [3, 0]"] ;
267 -> 269 ;
270 [label="gini = 0.0\nsamples = 1\nvalue = [0, 2]"] ;
266 -> 270 ;
271 [label="Age <= 24.5\ngini = 0.375\nsamples = 4\nvalue = [6, 2]"] ;
265 -> 271 ;
272 [label="MaritalStatus <= 0.5\ngini = 0.444\nsamples = 3\nvalue = [4, 2]"] ;
271 -> 272 ;
273 [label="gini = 0.5\nsamples = 2\nvalue = [2, 2]"] ;
272 -> 273 ;
274 [label="gini = 0.0\nsamples = 1\nvalue = [2, 0]"] ;
272 -> 274 ;
275 [label="gini = 0.0\nsamples = 1\nvalue = [2, 0]"] ;
271 -> 275 ;
276 [label="Age <= 24.5\ngini = 0.5\nsamples = 2\nvalue = [1, 1]"] ;
262 -> 276 ;
277 [label="gini = 0.0\nsamples = 1\nvalue = [0, 1]"] ;
276 -> 277 ;
278 [label="gini = 0.0\nsamples = 1\nvalue = [1, 0]"] ;
276 -> 278 ;
279 [label="gini = 0.0\nsamples = 2\nvalue = [0, 4]"] ;
225 -> 279 ;
280 [label="Age <= 18.5\ngini = 0.494\nsamples = 91\nvalue = [74, 59]"] ;
224 -> 280 ;
281 [label="CallActivity <= 3.5\ngini = 0.477\nsamples = 71\nvalue = [65, 42]"] ;
280 -> 281 ;
282 [label="Available401K <= 0.5\ngini = 0.483\nsamples = 68\nvalue = [61, 42]"] ;
281 -> 282 ;
283 [label="CallActivity <= 2.5\ngini = 0.491\nsamples = 32\nvalue = [26, 20]"] ;
282 -> 283 ;
284 [label="gini = 0.0\nsamples = 2\nvalue = [4, 0]"] ;
283 -> 284 ;
285 [label="SentimentRating <= 2.5\ngini = 0.499\nsamples = 30\nvalue = [22, 20]"] ;
283 -> 285 ;
286 [label="EstimatedYearlyIncome <= 5.5\ngini = 0.5\nsamples = 29\nvalue = [21, 20]"] ;
285 -> 286 ;
287 [label="gini = 0.0\nsamples = 1\nvalue = [0, 1]"] ;
286 -> 287 ;
288 [label="Age <= 17.5\ngini = 0.499\nsamples = 28\nvalue = [21, 19]"] ;
286 -> 288 ;
289 [label="EstimatedYearlyIncome <= 7.5\ngini = 0.499\nsamples = 21\nvalue = [15, 16]"] ;
288 -> 289 ;
290 [label="Gender <= 0.5\ngini = 0.498\nsamples = 20\nvalue = [14, 16]"] ;
289 -> 290 ;
291 [label="Age <= 14.5\ngini = 0.459\nsamples = 7\nvalue = [5, 9]"] ;
290 -> 291 ;
292 [label="gini = 0.0\nsamples = 2\nvalue = [0, 4]"] ;
291 -> 292 ;
293 [label="Age <= 16.5\ngini = 0.5\nsamples = 5\nvalue = [5, 5]"] ;
291 -> 293 ;
294 [label="gini = 0.5\nsamples = 3\nvalue = [3, 3]"] ;
293 -> 294 ;
295 [label="gini = 0.5\nsamples = 2\nvalue = [2, 2]"] ;
293 -> 295 ;
296 [label="Age <= 14.5\ngini = 0.492\nsamples = 13\nvalue = [9, 7]"] ;
290 -> 296 ;
297 [label="gini = 0.0\nsamples = 2\nvalue = [4, 0]"] ;
296 -> 297 ;
298 [label="Age <= 16.5\ngini = 0.486\nsamples = 11\nvalue = [5, 7]"] ;
296 -> 298 ;
299 [label="gini = 0.48\nsamples = 5\nvalue = [2, 3]"] ;
298 -> 299 ;
300 [label="gini = 0.49\nsamples = 6\nvalue = [3, 4]"] ;
298 -> 300 ;
301 [label="gini = 0.0\nsamples = 1\nvalue = [1, 0]"] ;
289 -> 301 ;
302 [label="Gender <= 0.5\ngini = 0.444\nsamples = 7\nvalue = [6, 3]"] ;
288 -> 302 ;
303 [label="gini = 0.444\nsamples = 5\nvalue = [4, 2]"] ;
302 -> 303 ;
304 [label="gini = 0.444\nsamples = 2\nvalue = [2, 1]"] ;
302 -> 304 ;
305 [label="gini = 0.0\nsamples = 1\nvalue = [1, 0]"] ;
285 -> 305 ;
306 [label="Age <= 17.5\ngini = 0.474\nsamples = 36\nvalue = [35, 22]"] ;
282 -> 306 ;
307 [label="WebActivity <= 1.5\ngini = 0.454\nsamples = 29\nvalue = [30, 16]"] ;
306 -> 307 ;
308 [label="MaritalStatus <= 0.5\ngini = 0.469\nsamples = 24\nvalue = [25, 15]"] ;
307 -> 308 ;
309 [label="gini = 0.0\nsamples = 1\nvalue = [3, 0]"] ;
308 -> 309 ;
310 [label="Gender <= 0.5\ngini = 0.482\nsamples = 23\nvalue = [22, 15]"] ;
308 -> 310 ;
311 [label="EstimatedYearlyIncome <= 7.5\ngini = 0.476\nsamples = 13\nvalue = [14, 9]"] ;
310 -> 311 ;
312 [label="CallActivity <= 2.5\ngini = 0.483\nsamples = 12\nvalue = [13, 9]"] ;
311 -> 312 ;
313 [label="gini = 0.444\nsamples = 2\nvalue = [2, 1]"] ;
312 -> 313 ;
314 [label="Age <= 14.0\ngini = 0.488\nsamples = 10\nvalue = [11, 8]"] ;
312 -> 314 ;
315 [label="gini = 0.278\nsamples = 2\nvalue = [5, 1]"] ;
314 -> 315 ;
316 [label="Age <= 16.5\ngini = 0.497\nsamples = 8\nvalue = [6, 7]"] ;
314 -> 316 ;
317 [label="Age <= 15.5\ngini = 0.375\nsamples = 3\nvalue = [1, 3]"] ;
316 -> 317 ;
318 [label="gini = 0.0\nsamples = 1\nvalue = [0, 1]"] ;
317 -> 318 ;
319 [label="gini = 0.444\nsamples = 2\nvalue = [1, 2]"] ;
317 -> 319 ;
320 [label="gini = 0.494\nsamples = 5\nvalue = [5, 4]"] ;
316 -> 320 ;
321 [label="gini = 0.0\nsamples = 1\nvalue = [1, 0]"] ;
311 -> 321 ;
322 [label="Age <= 16.5\ngini = 0.49\nsamples = 10\nvalue = [8, 6]"] ;
310 -> 322 ;
323 [label="Age <= 14.5\ngini = 0.494\nsamples = 7\nvalue = [4, 5]"] ;
322 -> 323 ;
324 [label="gini = 0.444\nsamples = 3\nvalue = [1, 2]"] ;
323 -> 324 ;
325 [label="CallActivity <= 2.5\ngini = 0.5\nsamples = 4\nvalue = [3, 3]"] ;
323 -> 325 ;
326 [label="gini = 0.0\nsamples = 1\nvalue = [0, 1]"] ;
325 -> 326 ;
327 [label="gini = 0.48\nsamples = 3\nvalue = [3, 2]"] ;
325 -> 327 ;
328 [label="gini = 0.32\nsamples = 3\nvalue = [4, 1]"] ;
322 -> 328 ;
329 [label="Age <= 15.5\ngini = 0.278\nsamples = 5\nvalue = [5, 1]"] ;
307 -> 329 ;
330 [label="gini = 0.0\nsamples = 1\nvalue = [0, 1]"] ;
329 -> 330 ;
331 [label="gini = 0.0\nsamples = 4\nvalue = [5, 0]"] ;
329 -> 331 ;
332 [label="Gender <= 0.5\ngini = 0.496\nsamples = 7\nvalue = [5, 6]"] ;
306 -> 332 ;
333 [label="MaritalStatus <= 0.5\ngini = 0.48\nsamples = 3\nvalue = [3, 2]"] ;
332 -> 333 ;
334 [label="gini = 0.0\nsamples = 1\nvalue = [0, 1]"] ;
333 -> 334 ;
335 [label="gini = 0.375\nsamples = 2\nvalue = [3, 1]"] ;
333 -> 335 ;
336 [label="EstimatedYearlyIncome <= 5.5\ngini = 0.444\nsamples = 4\nvalue = [2, 4]"] ;
332 -> 336 ;
337 [label="WebActivity <= 2.5\ngini = 0.375\nsamples = 2\nvalue = [1, 3]"] ;
336 -> 337 ;
338 [label="gini = 0.0\nsamples = 1\nvalue = [0, 3]"] ;
337 -> 338 ;
339 [label="gini = 0.0\nsamples = 1\nvalue = [1, 0]"] ;
337 -> 339 ;
340 [label="gini = 0.5\nsamples = 2\nvalue = [1, 1]"] ;
336 -> 340 ;
341 [label="gini = 0.0\nsamples = 3\nvalue = [4, 0]"] ;
281 -> 341 ;
342 [label="SentimentRating <= 1.5\ngini = 0.453\nsamples = 20\nvalue = [9, 17]"] ;
280 -> 342 ;
343 [label="Available401K <= 0.5\ngini = 0.375\nsamples = 12\nvalue = [4, 12]"] ;
342 -> 343 ;
344 [label="EstimatedYearlyIncome <= 6.5\ngini = 0.375\nsamples = 3\nvalue = [3, 1]"] ;
343 -> 344 ;
345 [label="gini = 0.0\nsamples = 1\nvalue = [0, 1]"] ;
344 -> 345 ;
346 [label="gini = 0.0\nsamples = 2\nvalue = [3, 0]"] ;
344 -> 346 ;
347 [label="EstimatedYearlyIncome <= 6.5\ngini = 0.153\nsamples = 9\nvalue = [1, 11]"] ;
343 -> 347 ;
348 [label="gini = 0.0\nsamples = 7\nvalue = [0, 9]"] ;
347 -> 348 ;
349 [label="Gender <= 0.5\ngini = 0.444\nsamples = 2\nvalue = [1, 2]"] ;
347 -> 349 ;
350 [label="gini = 0.0\nsamples = 1\nvalue = [0, 2]"] ;
349 -> 350 ;
351 [label="gini = 0.0\nsamples = 1\nvalue = [1, 0]"] ;
349 -> 351 ;
352 [label="MaritalStatus <= 0.5\ngini = 0.5\nsamples = 8\nvalue = [5, 5]"] ;
342 -> 352 ;
353 [label="gini = 0.0\nsamples = 3\nvalue = [5, 0]"] ;
352 -> 353 ;
354 [label="gini = 0.0\nsamples = 5\nvalue = [0, 5]"] ;
352 -> 354 ;
355 [label="gini = 0.0\nsamples = 8\nvalue = [12, 0]"] ;
223 -> 355 ;
356 [label="Age <= 6.5\ngini = 0.48\nsamples = 3141\nvalue = [1967, 2959]"] ;
2 -> 356 ;
357 [label="NumberOfContracts <= 0.5\ngini = 0.421\nsamples = 309\nvalue = [335, 144]"] ;
356 -> 357 ;
358 [label="CallActivity <= 1.5\ngini = 0.422\nsamples = 27\nvalue = [13, 30]"] ;
357 -> 358 ;
359 [label="MaritalStatus <= 0.5\ngini = 0.298\nsamples = 13\nvalue = [4, 18]"] ;
358 -> 359 ;
360 [label="gini = 0.0\nsamples = 7\nvalue = [0, 12]"] ;
359 -> 360 ;
361 [label="Available401K <= 0.5\ngini = 0.48\nsamples = 6\nvalue = [4, 6]"] ;
359 -> 361 ;
362 [label="gini = 0.0\nsamples = 1\nvalue = [0, 1]"] ;
361 -> 362 ;
363 [label="Gender <= 0.5\ngini = 0.494\nsamples = 5\nvalue = [4, 5]"] ;
361 -> 363 ;
364 [label="ChurnScore <= 0.5\ngini = 0.375\nsamples = 3\nvalue = [1, 3]"] ;
363 -> 364 ;
365 [label="gini = 0.0\nsamples = 1\nvalue = [1, 0]"] ;
364 -> 365 ;
366 [label="gini = 0.0\nsamples = 2\nvalue = [0, 3]"] ;
364 -> 366 ;
367 [label="Age <= 5.5\ngini = 0.48\nsamples = 2\nvalue = [3, 2]"] ;
363 -> 367 ;
368 [label="gini = 0.0\nsamples = 1\nvalue = [3, 0]"] ;
367 -> 368 ;
369 [label="gini = 0.0\nsamples = 1\nvalue = [0, 2]"] ;
367 -> 369 ;
370 [label="Available401K <= 0.5\ngini = 0.49\nsamples = 14\nvalue = [9, 12]"] ;
358 -> 370 ;
371 [label="gini = 0.0\nsamples = 1\nvalue = [0, 1]"] ;
370 -> 371 ;
372 [label="ChurnScore <= 0.5\ngini = 0.495\nsamples = 13\nvalue = [9, 11]"] ;
370 -> 372 ;
373 [label="WebActivity <= 2.5\ngini = 0.245\nsamples = 5\nvalue = [6, 1]"] ;
372 -> 373 ;
374 [label="Gender <= 0.5\ngini = 0.278\nsamples = 4\nvalue = [5, 1]"] ;
373 -> 374 ;
375 [label="Age <= 5.5\ngini = 0.444\nsamples = 2\nvalue = [2, 1]"] ;
374 -> 375 ;
376 [label="gini = 0.0\nsamples = 1\nvalue = [2, 0]"] ;
375 -> 376 ;
377 [label="gini = 0.0\nsamples = 1\nvalue = [0, 1]"] ;
375 -> 377 ;
378 [label="gini = 0.0\nsamples = 2\nvalue = [3, 0]"] ;
374 -> 378 ;
379 [label="gini = 0.0\nsamples = 1\nvalue = [1, 0]"] ;
373 -> 379 ;
380 [label="Age <= 5.5\ngini = 0.355\nsamples = 8\nvalue = [3, 10]"] ;
372 -> 380 ;
381 [label="gini = 0.0\nsamples = 3\nvalue = [0, 5]"] ;
380 -> 381 ;
382 [label="Gender <= 0.5\ngini = 0.469\nsamples = 5\nvalue = [3, 5]"] ;
380 -> 382 ;
383 [label="gini = 0.48\nsamples = 4\nvalue = [3, 2]"] ;
382 -> 383 ;
384 [label="gini = 0.0\nsamples = 1\nvalue = [0, 3]"] ;
382 -> 384 ;
385 [label="CustomerValueSegment <= 1.5\ngini = 0.386\nsamples = 282\nvalue = [322, 114]"] ;
357 -> 385 ;
386 [label="EstimatedYearlyIncome <= 4.5\ngini = 0.229\nsamples = 99\nvalue = [138, 21]"] ;
385 -> 386 ;
387 [label="ChurnScore <= 2.0\ngini = 0.163\nsamples = 89\nvalue = [132, 13]"] ;
386 -> 387 ;
388 [label="Products <= 2.5\ngini = 0.274\nsamples = 40\nvalue = [51, 10]"] ;
387 -> 388 ;
389 [label="gini = 0.0\nsamples = 1\nvalue = [0, 2]"] ;
388 -> 389 ;
390 [label="WebActivity <= 3.5\ngini = 0.234\nsamples = 39\nvalue = [51, 8]"] ;
388 -> 390 ;
391 [label="Available401K <= 0.5\ngini = 0.265\nsamples = 36\nvalue = [43, 8]"] ;
390 -> 391 ;
392 [label="Gender <= 0.5\ngini = 0.388\nsamples = 15\nvalue = [14, 5]"] ;
391 -> 392 ;
393 [label="Age <= 2.5\ngini = 0.444\nsamples = 9\nvalue = [8, 4]"] ;
392 -> 393 ;
394 [label="gini = 0.0\nsamples = 1\nvalue = [2, 0]"] ;
393 -> 394 ;
395 [label="Age <= 5.5\ngini = 0.48\nsamples = 8\nvalue = [6, 4]"] ;
393 -> 395 ;
396 [label="Age <= 4.0\ngini = 0.5\nsamples = 7\nvalue = [4, 4]"] ;
395 -> 396 ;
397 [label="EstimatedYearlyIncome <= 2.5\ngini = 0.444\nsamples = 2\nvalue = [2, 1]"] ;
396 -> 397 ;
398 [label="gini = 0.0\nsamples = 1\nvalue = [2, 0]"] ;
397 -> 398 ;
399 [label="gini = 0.0\nsamples = 1\nvalue = [0, 1]"] ;
397 -> 399 ;
400 [label="gini = 0.48\nsamples = 5\nvalue = [2, 3]"] ;
396 -> 400 ;
401 [label="gini = 0.0\nsamples = 1\nvalue = [2, 0]"] ;
395 -> 401 ;
402 [label="MaritalStatus <= 0.5\ngini = 0.245\nsamples = 6\nvalue = [6, 1]"] ;
392 -> 402 ;
403 [label="gini = 0.0\nsamples = 2\nvalue = [2, 0]"] ;
402 -> 403 ;
404 [label="EstimatedYearlyIncome <= 2.5\ngini = 0.32\nsamples = 4\nvalue = [4, 1]"] ;
402 -> 404 ;
405 [label="gini = 0.0\nsamples = 1\nvalue = [2, 0]"] ;
404 -> 405 ;
406 [label="CallActivity <= 1.5\ngini = 0.444\nsamples = 3\nvalue = [2, 1]"] ;
404 -> 406 ;
407 [label="gini = 0.0\nsamples = 1\nvalue = [1, 0]"] ;
406 -> 407 ;
408 [label="Age <= 4.5\ngini = 0.5\nsamples = 2\nvalue = [1, 1]"] ;
406 -> 408 ;
409 [label="gini = 0.0\nsamples = 1\nvalue = [1, 0]"] ;
408 -> 409 ;
410 [label="gini = 0.0\nsamples = 1\nvalue = [0, 1]"] ;
408 -> 410 ;
411 [label="ChurnScore <= 0.5\ngini = 0.17\nsamples = 21\nvalue = [29, 3]"] ;
391 -> 411 ;
412 [label="gini = 0.0\nsamples = 3\nvalue = [7, 0]"] ;
411 -> 412 ;
413 [label="SentimentRating <= 1.5\ngini = 0.211\nsamples = 18\nvalue = [22, 3]"] ;
411 -> 413 ;
414 [label="gini = 0.0\nsamples = 17\nvalue = [22, 0]"] ;
413 -> 414 ;
415 [label="gini = 0.0\nsamples = 1\nvalue = [0, 3]"] ;
413 -> 415 ;
416 [label="gini = 0.0\nsamples = 3\nvalue = [8, 0]"] ;
390 -> 416 ;
417 [label="Available401K <= 0.5\ngini = 0.069\nsamples = 49\nvalue = [81, 3]"] ;
387 -> 417 ;
418 [label="gini = 0.0\nsamples = 17\nvalue = [30, 0]"] ;
417 -> 418 ;
419 [label="CallActivity <= 3.0\ngini = 0.105\nsamples = 32\nvalue = [51, 3]"] ;
417 -> 419 ;
420 [label="Age <= 5.5\ngini = 0.12\nsamples = 29\nvalue = [44, 3]"] ;
419 -> 420 ;
421 [label="EstimatedYearlyIncome <= 2.5\ngini = 0.149\nsamples = 25\nvalue = [34, 3]"] ;
420 -> 421 ;
422 [label="CallActivity <= 1.5\ngini = 0.153\nsamples = 9\nvalue = [11, 1]"] ;
421 -> 422 ;
423 [label="gini = 0.0\nsamples = 1\nvalue = [1, 0]"] ;
422 -> 423 ;
424 [label="Gender <= 0.5\ngini = 0.165\nsamples = 8\nvalue = [10, 1]"] ;
422 -> 424 ;
425 [label="gini = 0.0\nsamples = 4\nvalue = [7, 0]"] ;
424 -> 425 ;
426 [label="MaritalStatus <= 0.5\ngini = 0.375\nsamples = 4\nvalue = [3, 1]"] ;
424 -> 426 ;
427 [label="Age <= 3.0\ngini = 0.5\nsamples = 2\nvalue = [1, 1]"] ;
426 -> 427 ;
428 [label="gini = 0.0\nsamples = 1\nvalue = [0, 1]"] ;
427 -> 428 ;
429 [label="gini = 0.0\nsamples = 1\nvalue = [1, 0]"] ;
427 -> 429 ;
430 [label="gini = 0.0\nsamples = 2\nvalue = [2, 0]"] ;
426 -> 430 ;
431 [label="CallActivity <= 1.5\ngini = 0.147\nsamples = 16\nvalue = [23, 2]"] ;
421 -> 431 ;
432 [label="gini = 0.0\nsamples = 1\nvalue = [2, 0]"] ;
431 -> 432 ;
433 [label="Age <= 2.5\ngini = 0.159\nsamples = 15\nvalue = [21, 2]"] ;
431 -> 433 ;
434 [label="gini = 0.0\nsamples = 4\nvalue = [8, 0]"] ;
433 -> 434 ;
435 [label="MaritalStatus <= 0.5\ngini = 0.231\nsamples = 11\nvalue = [13, 2]"] ;
433 -> 435 ;
436 [label="Age <= 3.5\ngini = 0.165\nsamples = 8\nvalue = [10, 1]"] ;
435 -> 436 ;
437 [label="gini = 0.444\nsamples = 2\nvalue = [2, 1]"] ;
436 -> 437 ;
438 [label="gini = 0.0\nsamples = 6\nvalue = [8, 0]"] ;
436 -> 438 ;
439 [label="Gender <= 0.5\ngini = 0.375\nsamples = 3\nvalue = [3, 1]"] ;
435 -> 439 ;
440 [label="gini = 0.5\nsamples = 2\nvalue = [1, 1]"] ;
439 -> 440 ;
441 [label="gini = 0.0\nsamples = 1\nvalue = [2, 0]"] ;
439 -> 441 ;
442 [label="gini = 0.0\nsamples = 4\nvalue = [10, 0]"] ;
420 -> 442 ;
443 [label="gini = 0.0\nsamples = 3\nvalue = [7, 0]"] ;
419 -> 443 ;
444 [label="EstimatedYearlyIncome <= 6.0\ngini = 0.49\nsamples = 10\nvalue = [6, 8]"] ;
386 -> 444 ;
445 [label="Available401K <= 0.5\ngini = 0.497\nsamples = 9\nvalue = [6, 7]"] ;
444 -> 445 ;
446 [label="Gender <= 0.5\ngini = 0.469\nsamples = 5\nvalue = [5, 3]"] ;
445 -> 446 ;
447 [label="gini = 0.0\nsamples = 3\nvalue = [5, 0]"] ;
446 -> 447 ;
448 [label="gini = 0.0\nsamples = 2\nvalue = [0, 3]"] ;
446 -> 448 ;
449 [label="ChurnScore <= 2.0\ngini = 0.32\nsamples = 4\nvalue = [1, 4]"] ;
445 -> 449 ;
450 [label="gini = 0.0\nsamples = 1\nvalue = [1, 0]"] ;
449 -> 450 ;
451 [label="gini = 0.0\nsamples = 3\nvalue = [0, 4]"] ;
449 -> 451 ;
452 [label="gini = 0.0\nsamples = 1\nvalue = [0, 1]"] ;
444 -> 452 ;
453 [label="Products <= 2.5\ngini = 0.446\nsamples = 183\nvalue = [184, 93]"] ;
385 -> 453 ;
454 [label="Products <= 1.0\ngini = 0.201\nsamples = 77\nvalue = [102, 13]"] ;
453 -> 454 ;
455 [label="gini = 0.0\nsamples = 11\nvalue = [17, 0]"] ;
454 -> 455 ;
456 [label="Gender <= 0.5\ngini = 0.23\nsamples = 66\nvalue = [85, 13]"] ;
454 -> 456 ;
457 [label="CallActivity <= 0.5\ngini = 0.156\nsamples = 35\nvalue = [43, 4]"] ;
456 -> 457 ;
458 [label="Age <= 3.5\ngini = 0.219\nsamples = 25\nvalue = [28, 4]"] ;
457 -> 458 ;
459 [label="gini = 0.0\nsamples = 8\nvalue = [10, 0]"] ;
458 -> 459 ;
460 [label="MaritalStatus <= 0.5\ngini = 0.298\nsamples = 17\nvalue = [18, 4]"] ;
458 -> 460 ;
461 [label="SentimentRating <= 2.0\ngini = 0.375\nsamples = 3\nvalue = [3, 1]"] ;
460 -> 461 ;
462 [label="gini = 0.0\nsamples = 2\nvalue = [3, 0]"] ;
461 -> 462 ;
463 [label="gini = 0.0\nsamples = 1\nvalue = [0, 1]"] ;
461 -> 463 ;
464 [label="ChurnScore <= 1.5\ngini = 0.278\nsamples = 14\nvalue = [15, 3]"] ;
460 -> 464 ;
465 [label="Age <= 4.5\ngini = 0.5\nsamples = 5\nvalue = [3, 3]"] ;
464 -> 465 ;
466 [label="gini = 0.0\nsamples = 1\nvalue = [0, 1]"] ;
465 -> 466 ;
467 [label="Available401K <= 0.5\ngini = 0.48\nsamples = 4\nvalue = [3, 2]"] ;
465 -> 467 ;
468 [label="gini = 0.375\nsamples = 3\nvalue = [3, 1]"] ;
467 -> 468 ;
469 [label="gini = 0.0\nsamples = 1\nvalue = [0, 1]"] ;
467 -> 469 ;
470 [label="gini = 0.0\nsamples = 9\nvalue = [12, 0]"] ;
464 -> 470 ;
471 [label="gini = 0.0\nsamples = 10\nvalue = [15, 0]"] ;
457 -> 471 ;
472 [label="ChurnScore <= 1.5\ngini = 0.291\nsamples = 31\nvalue = [42, 9]"] ;
456 -> 472 ;
473 [label="Available401K <= 0.5\ngini = 0.434\nsamples = 12\nvalue = [15, 7]"] ;
472 -> 473 ;
474 [label="SentimentRating <= 2.0\ngini = 0.492\nsamples = 8\nvalue = [9, 7]"] ;
473 -> 474 ;
475 [label="Age <= 5.0\ngini = 0.498\nsamples = 7\nvalue = [8, 7]"] ;
474 -> 475 ;
476 [label="CallActivity <= 0.5\ngini = 0.397\nsamples = 6\nvalue = [8, 3]"] ;
475 -> 476 ;
477 [label="Age <= 3.5\ngini = 0.32\nsamples = 4\nvalue = [4, 1]"] ;
476 -> 477 ;
478 [label="EstimatedYearlyIncome <= 1.5\ngini = 0.444\nsamples = 3\nvalue = [2, 1]"] ;
477 -> 478 ;
479 [label="gini = 0.0\nsamples = 1\nvalue = [1, 0]"] ;
478 -> 479 ;
480 [label="gini = 0.5\nsamples = 2\nvalue = [1, 1]"] ;
478 -> 480 ;
481 [label="gini = 0.0\nsamples = 1\nvalue = [2, 0]"] ;
477 -> 481 ;
482 [label="gini = 0.444\nsamples = 2\nvalue = [4, 2]"] ;
476 -> 482 ;
483 [label="gini = 0.0\nsamples = 1\nvalue = [0, 4]"] ;
475 -> 483 ;
484 [label="gini = 0.0\nsamples = 1\nvalue = [1, 0]"] ;
474 -> 484 ;
485 [label="gini = 0.0\nsamples = 4\nvalue = [6, 0]"] ;
473 -> 485 ;
486 [label="EstimatedYearlyIncome <= 1.5\ngini = 0.128\nsamples = 19\nvalue = [27, 2]"] ;
472 -> 486 ;
487 [label="CallActivity <= 0.5\ngini = 0.153\nsamples = 17\nvalue = [22, 2]"] ;
486 -> 487 ;
488 [label="ChurnScore <= 2.5\ngini = 0.172\nsamples = 14\nvalue = [19, 2]"] ;
487 -> 488 ;
489 [label="Available401K <= 0.5\ngini = 0.245\nsamples = 10\nvalue = [12, 2]"] ;
488 -> 489 ;
490 [label="Age <= 3.5\ngini = 0.219\nsamples = 6\nvalue = [7, 1]"] ;
489 -> 490 ;
491 [label="gini = 0.444\nsamples = 3\nvalue = [2, 1]"] ;
490 -> 491 ;
492 [label="gini = 0.0\nsamples = 3\nvalue = [5, 0]"] ;
490 -> 492 ;
493 [label="Age <= 5.5\ngini = 0.278\nsamples = 4\nvalue = [5, 1]"] ;
489 -> 493 ;
494 [label="gini = 0.0\nsamples = 3\nvalue = [5, 0]"] ;
493 -> 494 ;
495 [label="gini = 0.0\nsamples = 1\nvalue = [0, 1]"] ;
493 -> 495 ;
496 [label="gini = 0.0\nsamples = 4\nvalue = [7, 0]"] ;
488 -> 496 ;
497 [label="gini = 0.0\nsamples = 3\nvalue = [3, 0]"] ;
487 -> 497 ;
498 [label="gini = 0.0\nsamples = 2\nvalue = [5, 0]"] ;
486 -> 498 ;
499 [label="WebActivity <= 1.5\ngini = 0.5\nsamples = 106\nvalue = [82, 80]"] ;
453 -> 499 ;
500 [label="MaritalStatus <= 0.5\ngini = 0.496\nsamples = 89\nvalue = [76, 63]"] ;
499 -> 500 ;
501 [label="Age <= 4.5\ngini = 0.496\nsamples = 6\nvalue = [6, 5]"] ;
500 -> 501 ;
502 [label="gini = 0.0\nsamples = 3\nvalue = [4, 0]"] ;
501 -> 502 ;
503 [label="Age <= 5.5\ngini = 0.408\nsamples = 3\nvalue = [2, 5]"] ;
501 -> 503 ;
504 [label="Gender <= 0.5\ngini = 0.5\nsamples = 2\nvalue = [2, 2]"] ;
503 -> 504 ;
505 [label="gini = 0.0\nsamples = 1\nvalue = [0, 2]"] ;
504 -> 505 ;
506 [label="gini = 0.0\nsamples = 1\nvalue = [2, 0]"] ;
504 -> 506 ;
507 [label="gini = 0.0\nsamples = 1\nvalue = [0, 3]"] ;
503 -> 507 ;
508 [label="ChurnScore <= 1.5\ngini = 0.496\nsamples = 83\nvalue = [70, 58]"] ;
500 -> 508 ;
509 [label="Age <= 5.5\ngini = 0.5\nsamples = 32\nvalue = [23, 23]"] ;
508 -> 509 ;
510 [label="ChurnScore <= 0.5\ngini = 0.383\nsamples = 25\nvalue = [8, 23]"] ;
509 -> 510 ;
511 [label="CallActivity <= 0.5\ngini = 0.408\nsamples = 24\nvalue = [8, 20]"] ;
510 -> 511 ;
512 [label="gini = 0.0\nsamples = 3\nvalue = [0, 3]"] ;
511 -> 512 ;
513 [label="Gender <= 0.5\ngini = 0.435\nsamples = 21\nvalue = [8, 17]"] ;
511 -> 513 ;
514 [label="Available401K <= 0.5\ngini = 0.375\nsamples = 9\nvalue = [3, 9]"] ;
513 -> 514 ;
515 [label="Age <= 4.5\ngini = 0.397\nsamples = 8\nvalue = [3, 8]"] ;
514 -> 515 ;
516 [label="Age <= 3.5\ngini = 0.245\nsamples = 5\nvalue = [1, 6]"] ;
515 -> 516 ;
517 [label="gini = 0.5\nsamples = 2\nvalue = [1, 1]"] ;
516 -> 517 ;
518 [label="gini = 0.0\nsamples = 3\nvalue = [0, 5]"] ;
516 -> 518 ;
519 [label="gini = 0.5\nsamples = 3\nvalue = [2, 2]"] ;
515 -> 519 ;
520 [label="gini = 0.0\nsamples = 1\nvalue = [0, 1]"] ;
514 -> 520 ;
521 [label="Age <= 4.5\ngini = 0.473\nsamples = 12\nvalue = [5, 8]"] ;
513 -> 521 ;
522 [label="gini = 0.0\nsamples = 4\nvalue = [0, 4]"] ;
521 -> 522 ;
523 [label="gini = 0.494\nsamples = 8\nvalue = [5, 4]"] ;
521 -> 523 ;
524 [label="gini = 0.0\nsamples = 1\nvalue = [0, 3]"] ;
510 -> 524 ;
525 [label="gini = 0.0\nsamples = 7\nvalue = [15, 0]"] ;
509 -> 525 ;
526 [label="Available401K <= 0.5\ngini = 0.489\nsamples = 51\nvalue = [47, 35]"] ;
508 -> 526 ;
527 [label="Age <= 5.5\ngini = 0.499\nsamples = 34\nvalue = [27, 29]"] ;
526 -> 527 ;
528 [label="Gender <= 0.5\ngini = 0.451\nsamples = 21\nvalue = [21, 11]"] ;
527 -> 528 ;
529 [label="CallActivity <= 0.5\ngini = 0.363\nsamples = 14\nvalue = [16, 5]"] ;
528 -> 529 ;
530 [label="gini = 0.0\nsamples = 3\nvalue = [4, 0]"] ;
529 -> 530 ;
531 [label="Age <= 4.5\ngini = 0.415\nsamples = 11\nvalue = [12, 5]"] ;
529 -> 531 ;
532 [label="Age <= 3.5\ngini = 0.165\nsamples = 9\nvalue = [10, 1]"] ;
531 -> 532 ;
533 [label="gini = 0.0\nsamples = 2\nvalue = [2, 0]"] ;
532 -> 533 ;
534 [label="gini = 0.198\nsamples = 7\nvalue = [8, 1]"] ;
532 -> 534 ;
535 [label="gini = 0.444\nsamples = 2\nvalue = [2, 4]"] ;
531 -> 535 ;
536 [label="CallActivity <= 0.5\ngini = 0.496\nsamples = 7\nvalue = [5, 6]"] ;
528 -> 536 ;
537 [label="gini = 0.0\nsamples = 1\nvalue = [0, 1]"] ;
536 -> 537 ;
538 [label="Age <= 4.5\ngini = 0.5\nsamples = 6\nvalue = [5, 5]"] ;
536 -> 538 ;
539 [label="Age <= 3.0\ngini = 0.469\nsamples = 5\nvalue = [3, 5]"] ;
538 -> 539 ;
540 [label="gini = 0.0\nsamples = 1\nvalue = [1, 0]"] ;
539 -> 540 ;
541 [label="gini = 0.408\nsamples = 4\nvalue = [2, 5]"] ;
539 -> 541 ;
542 [label="gini = 0.0\nsamples = 1\nvalue = [2, 0]"] ;
538 -> 542 ;
543 [label="CallActivity <= 0.5\ngini = 0.375\nsamples = 13\nvalue = [6, 18]"] ;
527 -> 543 ;
544 [label="Gender <= 0.5\ngini = 0.49\nsamples = 4\nvalue = [3, 4]"] ;
543 -> 544 ;
545 [label="gini = 0.5\nsamples = 3\nvalue = [3, 3]"] ;
544 -> 545 ;
546 [label="gini = 0.0\nsamples = 1\nvalue = [0, 1]"] ;
544 -> 546 ;
547 [label="Gender <= 0.5\ngini = 0.291\nsamples = 9\nvalue = [3, 14]"] ;
543 -> 547 ;
548 [label="gini = 0.32\nsamples = 3\nvalue = [1, 4]"] ;
547 -> 548 ;
549 [label="gini = 0.278\nsamples = 6\nvalue = [2, 10]"] ;
547 -> 549 ;
550 [label="CallActivity <= 0.5\ngini = 0.355\nsamples = 17\nvalue = [20, 6]"] ;
526 -> 550 ;
551 [label="Age <= 4.5\ngini = 0.444\nsamples = 4\nvalue = [4, 2]"] ;
550 -> 551 ;
552 [label="gini = 0.0\nsamples = 3\nvalue = [4, 0]"] ;
551 -> 552 ;
553 [label="gini = 0.0\nsamples = 1\nvalue = [0, 2]"] ;
551 -> 553 ;
554 [label="Age <= 2.5\ngini = 0.32\nsamples = 13\nvalue = [16, 4]"] ;
550 -> 554 ;
555 [label="gini = 0.0\nsamples = 1\nvalue = [0, 1]"] ;
554 -> 555 ;
556 [label="Gender <= 0.5\ngini = 0.266\nsamples = 12\nvalue = [16, 3]"] ;
554 -> 556 ;
557 [label="gini = 0.0\nsamples = 7\nvalue = [10, 0]"] ;
556 -> 557 ;
558 [label="Age <= 4.5\ngini = 0.444\nsamples = 5\nvalue = [6, 3]"] ;
556 -> 558 ;
559 [label="Age <= 3.5\ngini = 0.48\nsamples = 3\nvalue = [2, 3]"] ;
558 -> 559 ;
560 [label="gini = 0.0\nsamples = 1\nvalue = [1, 0]"] ;
559 -> 560 ;
561 [label="gini = 0.375\nsamples = 2\nvalue = [1, 3]"] ;
559 -> 561 ;
562 [label="gini = 0.0\nsamples = 2\nvalue = [4, 0]"] ;
558 -> 562 ;
563 [label="Gender <= 0.5\ngini = 0.386\nsamples = 17\nvalue = [6, 17]"] ;
499 -> 563 ;
564 [label="WebActivity <= 4.5\ngini = 0.391\nsamples = 10\nvalue = [4, 11]"] ;
563 -> 564 ;
565 [label="WebActivity <= 3.5\ngini = 0.444\nsamples = 7\nvalue = [4, 8]"] ;
564 -> 565 ;
566 [label="CallActivity <= 1.5\ngini = 0.408\nsamples = 4\nvalue = [2, 5]"] ;
565 -> 566 ;
567 [label="CallActivity <= 0.5\ngini = 0.5\nsamples = 3\nvalue = [2, 2]"] ;
566 -> 567 ;
568 [label="gini = 0.0\nsamples = 1\nvalue = [0, 1]"] ;
567 -> 568 ;
569 [label="gini = 0.444\nsamples = 2\nvalue = [2, 1]"] ;
567 -> 569 ;
570 [label="gini = 0.0\nsamples = 1\nvalue = [0, 3]"] ;
566 -> 570 ;
571 [label="CallActivity <= 1.5\ngini = 0.48\nsamples = 3\nvalue = [2, 3]"] ;
565 -> 571 ;
572 [label="gini = 0.375\nsamples = 2\nvalue = [1, 3]"] ;
571 -> 572 ;
573 [label="gini = 0.0\nsamples = 1\nvalue = [1, 0]"] ;
571 -> 573 ;
574 [label="gini = 0.0\nsamples = 3\nvalue = [0, 3]"] ;
564 -> 574 ;
575 [label="SentimentRating <= 3.5\ngini = 0.375\nsamples = 7\nvalue = [2, 6]"] ;
563 -> 575 ;
576 [label="gini = 0.0\nsamples = 3\nvalue = [0, 3]"] ;
575 -> 576 ;
577 [label="MaritalStatus <= 0.5\ngini = 0.48\nsamples = 4\nvalue = [2, 3]"] ;
575 -> 577 ;
578 [label="gini = 0.0\nsamples = 1\nvalue = [1, 0]"] ;
577 -> 578 ;
579 [label="gini = 0.375\nsamples = 3\nvalue = [1, 3]"] ;
577 -> 579 ;
580 [label="SentimentRating <= 3.5\ngini = 0.465\nsamples = 2832\nvalue = [1632, 2815]"] ;
356 -> 580 ;
581 [label="SentimentRating <= 1.5\ngini = 0.449\nsamples = 2517\nvalue = [1351, 2612]"] ;
580 -> 581 ;
582 [label="EstimatedYearlyIncome <= 0.5\ngini = 0.461\nsamples = 1815\nvalue = [1026, 1818]"] ;
581 -> 582 ;
583 [label="Available401K <= 0.5\ngini = 0.222\nsamples = 89\nvalue = [117, 17]"] ;
582 -> 583 ;
584 [label="ChurnScore <= 0.5\ngini = 0.176\nsamples = 25\nvalue = [37, 4]"] ;
583 -> 584 ;
585 [label="gini = 0.0\nsamples = 8\nvalue = [14, 0]"] ;
584 -> 585 ;
586 [label="Gender <= 0.5\ngini = 0.252\nsamples = 17\nvalue = [23, 4]"] ;
584 -> 586 ;
587 [label="Age <= 21.5\ngini = 0.391\nsamples = 10\nvalue = [11, 4]"] ;
586 -> 587 ;
588 [label="CallActivity <= 0.5\ngini = 0.278\nsamples = 7\nvalue = [10, 2]"] ;
587 -> 588 ;
589 [label="Age <= 20.5\ngini = 0.375\nsamples = 4\nvalue = [6, 2]"] ;
588 -> 589 ;
590 [label="gini = 0.0\nsamples = 1\nvalue = [1, 0]"] ;
589 -> 590 ;
591 [label="ChurnScore <= 1.5\ngini = 0.408\nsamples = 3\nvalue = [5, 2]"] ;
589 -> 591 ;
592 [label="gini = 0.48\nsamples = 2\nvalue = [3, 2]"] ;
591 -> 592 ;
593 [label="gini = 0.0\nsamples = 1\nvalue = [2, 0]"] ;
591 -> 593 ;
594 [label="gini = 0.0\nsamples = 3\nvalue = [4, 0]"] ;
588 -> 594 ;
595 [label="ChurnScore <= 1.5\ngini = 0.444\nsamples = 3\nvalue = [1, 2]"] ;
587 -> 595 ;
596 [label="gini = 0.0\nsamples = 2\nvalue = [0, 2]"] ;
595 -> 596 ;
597 [label="gini = 0.0\nsamples = 1\nvalue = [1, 0]"] ;
595 -> 597 ;
598 [label="gini = 0.0\nsamples = 7\nvalue = [12, 0]"] ;
586 -> 598 ;
599 [label="SentimentRating <= 0.5\ngini = 0.24\nsamples = 64\nvalue = [80, 13]"] ;
583 -> 599 ;
600 [label="gini = 0.0\nsamples = 3\nvalue = [0, 4]"] ;
599 -> 600 ;
601 [label="Products <= 1.5\ngini = 0.182\nsamples = 61\nvalue = [80, 9]"] ;
599 -> 601 ;
602 [label="gini = 0.0\nsamples = 17\nvalue = [22, 0]"] ;
601 -> 602 ;
603 [label="ChurnScore <= 2.5\ngini = 0.233\nsamples = 44\nvalue = [58, 9]"] ;
601 -> 603 ;
604 [label="MaritalStatus <= 0.5\ngini = 0.242\nsamples = 42\nvalue = [55, 9]"] ;
603 -> 604 ;
605 [label="Gender <= 0.5\ngini = 0.268\nsamples = 29\nvalue = [37, 7]"] ;
604 -> 605 ;
606 [label="Products <= 3.5\ngini = 0.401\nsamples = 10\nvalue = [13, 5]"] ;
605 -> 606 ;
607 [label="Age <= 23.5\ngini = 0.444\nsamples = 4\nvalue = [4, 2]"] ;
606 -> 607 ;
608 [label="gini = 0.0\nsamples = 1\nvalue = [1, 0]"] ;
607 -> 608 ;
609 [label="gini = 0.48\nsamples = 3\nvalue = [3, 2]"] ;
607 -> 609 ;
610 [label="CallActivity <= 0.5\ngini = 0.375\nsamples = 6\nvalue = [9, 3]"] ;
606 -> 610 ;
611 [label="Age <= 21.5\ngini = 0.32\nsamples = 3\nvalue = [4, 1]"] ;
610 -> 611 ;
612 [label="gini = 0.5\nsamples = 2\nvalue = [1, 1]"] ;
611 -> 612 ;
613 [label="gini = 0.0\nsamples = 1\nvalue = [3, 0]"] ;
611 -> 613 ;
614 [label="Age <= 23.5\ngini = 0.408\nsamples = 3\nvalue = [5, 2]"] ;
610 -> 614 ;
615 [label="gini = 0.0\nsamples = 2\nvalue = [5, 0]"] ;
614 -> 615 ;
616 [label="gini = 0.0\nsamples = 1\nvalue = [0, 2]"] ;
614 -> 616 ;
617 [label="Products <= 3.5\ngini = 0.142\nsamples = 19\nvalue = [24, 2]"] ;
605 -> 617 ;
618 [label="gini = 0.0\nsamples = 4\nvalue = [7, 0]"] ;
617 -> 618 ;
619 [label="CallActivity <= 0.5\ngini = 0.188\nsamples = 15\nvalue = [17, 2]"] ;
617 -> 619 ;
620 [label="Age <= 22.5\ngini = 0.231\nsamples = 12\nvalue = [13, 2]"] ;
619 -> 620 ;
621 [label="Age <= 21.0\ngini = 0.18\nsamples = 7\nvalue = [9, 1]"] ;
620 -> 621 ;
622 [label="gini = 0.219\nsamples = 6\nvalue = [7, 1]"] ;
621 -> 622 ;
623 [label="gini = 0.0\nsamples = 1\nvalue = [2, 0]"] ;
621 -> 623 ;
624 [label="gini = 0.32\nsamples = 5\nvalue = [4, 1]"] ;
620 -> 624 ;
625 [label="gini = 0.0\nsamples = 3\nvalue = [4, 0]"] ;
619 -> 625 ;
626 [label="NumberOfContracts <= 0.5\ngini = 0.18\nsamples = 13\nvalue = [18, 2]"] ;
604 -> 626 ;
627 [label="Products <= 3.5\ngini = 0.117\nsamples = 10\nvalue = [15, 1]"] ;
626 -> 627 ;
628 [label="WebActivity <= 0.5\ngini = 0.278\nsamples = 4\nvalue = [5, 1]"] ;
627 -> 628 ;
629 [label="gini = 0.32\nsamples = 3\nvalue = [4, 1]"] ;
628 -> 629 ;
630 [label="gini = 0.0\nsamples = 1\nvalue = [1, 0]"] ;
628 -> 630 ;
631 [label="gini = 0.0\nsamples = 6\nvalue = [10, 0]"] ;
627 -> 631 ;
632 [label="Gender <= 0.5\ngini = 0.375\nsamples = 3\nvalue = [3, 1]"] ;
626 -> 632 ;
633 [label="gini = 0.0\nsamples = 1\nvalue = [1, 0]"] ;
632 -> 633 ;
634 [label="Age <= 16.5\ngini = 0.444\nsamples = 2\nvalue = [2, 1]"] ;
632 -> 634 ;
635 [label="gini = 0.0\nsamples = 1\nvalue = [0, 1]"] ;
634 -> 635 ;
636 [label="gini = 0.0\nsamples = 1\nvalue = [2, 0]"] ;
634 -> 636 ;
637 [label="gini = 0.0\nsamples = 2\nvalue = [3, 0]"] ;
603 -> 637 ;
638 [label="CustomerValueSegment <= 1.5\ngini = 0.446\nsamples = 1726\nvalue = [909, 1801]"] ;
582 -> 638 ;
639 [label="EstimatedYearlyIncome <= 7.5\ngini = 0.48\nsamples = 996\nvalue = [631, 944]"] ;
638 -> 639 ;
640 [label="Age <= 8.5\ngini = 0.476\nsamples = 961\nvalue = [593, 928]"] ;
639 -> 640 ;
641 [label="Age <= 7.5\ngini = 0.477\nsamples = 122\nvalue = [118, 76]"] ;
640 -> 641 ;
642 [label="ChurnScore <= 1.5\ngini = 0.424\nsamples = 52\nvalue = [50, 22]"] ;
641 -> 642 ;
643 [label="EstimatedYearlyIncome <= 4.5\ngini = 0.483\nsamples = 39\nvalue = [32, 22]"] ;
642 -> 643 ;
644 [label="NumberOfContracts <= 0.5\ngini = 0.444\nsamples = 34\nvalue = [30, 15]"] ;
643 -> 644 ;
645 [label="EstimatedYearlyIncome <= 3.5\ngini = 0.488\nsamples = 21\nvalue = [15, 11]"] ;
644 -> 645 ;
646 [label="EstimatedYearlyIncome <= 2.5\ngini = 0.298\nsamples = 9\nvalue = [9, 2]"] ;
645 -> 646 ;
647 [label="gini = 0.0\nsamples = 2\nvalue = [3, 0]"] ;
646 -> 647 ;
648 [label="ChurnScore <= 0.5\ngini = 0.375\nsamples = 7\nvalue = [6, 2]"] ;
646 -> 648 ;
649 [label="MaritalStatus <= 0.5\ngini = 0.444\nsamples = 5\nvalue = [4, 2]"] ;
648 -> 649 ;
650 [label="Gender <= 0.5\ngini = 0.5\nsamples = 3\nvalue = [2, 2]"] ;
649 -> 650 ;
651 [label="gini = 0.0\nsamples = 1\nvalue = [1, 0]"] ;
650 -> 651 ;
652 [label="gini = 0.444\nsamples = 2\nvalue = [1, 2]"] ;
650 -> 652 ;
653 [label="gini = 0.0\nsamples = 2\nvalue = [2, 0]"] ;
649 -> 653 ;
654 [label="gini = 0.0\nsamples = 2\nvalue = [2, 0]"] ;
648 -> 654 ;
655 [label="Available401K <= 0.5\ngini = 0.48\nsamples = 12\nvalue = [6, 9]"] ;
645 -> 655 ;
656 [label="CallActivity <= 1.5\ngini = 0.49\nsamples = 5\nvalue = [4, 3]"] ;
655 -> 656 ;
657 [label="ChurnScore <= 0.5\ngini = 0.375\nsamples = 3\nvalue = [1, 3]"] ;
656 -> 657 ;
658 [label="gini = 0.0\nsamples = 1\nvalue = [1, 0]"] ;
657 -> 658 ;
659 [label="gini = 0.0\nsamples = 2\nvalue = [0, 3]"] ;
657 -> 659 ;
660 [label="gini = 0.0\nsamples = 2\nvalue = [3, 0]"] ;
656 -> 660 ;
661 [label="CallActivity <= 1.5\ngini = 0.375\nsamples = 7\nvalue = [2, 6]"] ;
655 -> 661 ;
662 [label="ChurnScore <= 0.5\ngini = 0.444\nsamples = 3\nvalue = [1, 2]"] ;
661 -> 662 ;
663 [label="gini = 0.0\nsamples = 1\nvalue = [1, 0]"] ;
662 -> 663 ;
664 [label="gini = 0.0\nsamples = 2\nvalue = [0, 2]"] ;
662 -> 664 ;
665 [label="MaritalStatus <= 0.5\ngini = 0.32\nsamples = 4\nvalue = [1, 4]"] ;
661 -> 665 ;
666 [label="gini = 0.0\nsamples = 2\nvalue = [0, 3]"] ;
665 -> 666 ;
667 [label="SentimentRating <= 0.5\ngini = 0.5\nsamples = 2\nvalue = [1, 1]"] ;
665 -> 667 ;
668 [label="gini = 0.0\nsamples = 1\nvalue = [1, 0]"] ;
667 -> 668 ;
669 [label="gini = 0.0\nsamples = 1\nvalue = [0, 1]"] ;
667 -> 669 ;
670 [label="Available401K <= 0.5\ngini = 0.332\nsamples = 13\nvalue = [15, 4]"] ;
644 -> 670 ;
671 [label="EstimatedYearlyIncome <= 2.5\ngini = 0.391\nsamples = 10\nvalue = [11, 4]"] ;
670 -> 671 ;
672 [label="MaritalStatus <= 0.5\ngini = 0.444\nsamples = 3\nvalue = [2, 4]"] ;
671 -> 672 ;
673 [label="gini = 0.0\nsamples = 1\nvalue = [0, 2]"] ;
672 -> 673 ;
674 [label="gini = 0.5\nsamples = 2\nvalue = [2, 2]"] ;
672 -> 674 ;
675 [label="gini = 0.0\nsamples = 7\nvalue = [9, 0]"] ;
671 -> 675 ;
676 [label="gini = 0.0\nsamples = 3\nvalue = [4, 0]"] ;
670 -> 676 ;
677 [label="Products <= 3.5\ngini = 0.346\nsamples = 5\nvalue = [2, 7]"] ;
643 -> 677 ;
678 [label="gini = 0.0\nsamples = 2\nvalue = [0, 5]"] ;
677 -> 678 ;
679 [label="Gender <= 0.5\ngini = 0.5\nsamples = 3\nvalue = [2, 2]"] ;
677 -> 679 ;
680 [label="MaritalStatus <= 0.5\ngini = 0.444\nsamples = 2\nvalue = [2, 1]"] ;
679 -> 680 ;
681 [label="gini = 0.0\nsamples = 1\nvalue = [2, 0]"] ;
680 -> 681 ;
682 [label="gini = 0.0\nsamples = 1\nvalue = [0, 1]"] ;
680 -> 682 ;
683 [label="gini = 0.0\nsamples = 1\nvalue = [0, 1]"] ;
679 -> 683 ;
684 [label="gini = 0.0\nsamples = 13\nvalue = [18, 0]"] ;
642 -> 684 ;
685 [label="EstimatedYearlyIncome <= 3.5\ngini = 0.493\nsamples = 70\nvalue = [68, 54]"] ;
641 -> 685 ;
686 [label="ChurnScore <= 0.5\ngini = 0.464\nsamples = 32\nvalue = [40, 23]"] ;
685 -> 686 ;
687 [label="gini = 0.0\nsamples = 10\nvalue = [16, 0]"] ;
686 -> 687 ;
688 [label="MaritalStatus <= 0.5\ngini = 0.5\nsamples = 22\nvalue = [24, 23]"] ;
686 -> 688 ;
689 [label="Available401K <= 0.5\ngini = 0.408\nsamples = 12\nvalue = [15, 6]"] ;
688 -> 689 ;
690 [label="gini = 0.444\nsamples = 2\nvalue = [1, 2]"] ;
689 -> 690 ;
691 [label="SentimentRating <= 0.5\ngini = 0.346\nsamples = 10\nvalue = [14, 4]"] ;
689 -> 691 ;
692 [label="gini = 0.0\nsamples = 2\nvalue = [0, 2]"] ;
691 -> 692 ;
693 [label="Gender <= 0.5\ngini = 0.219\nsamples = 8\nvalue = [14, 2]"] ;
691 -> 693 ;
694 [label="gini = 0.0\nsamples = 3\nvalue = [5, 0]"] ;
693 -> 694 ;
695 [label="gini = 0.298\nsamples = 5\nvalue = [9, 2]"] ;
693 -> 695 ;
696 [label="Gender <= 0.5\ngini = 0.453\nsamples = 10\nvalue = [9, 17]"] ;
688 -> 696 ;
697 [label="SentimentRating <= 0.5\ngini = 0.497\nsamples = 6\nvalue = [7, 6]"] ;
696 -> 697 ;
698 [label="gini = 0.0\nsamples = 2\nvalue = [0, 6]"] ;
697 -> 698 ;
699 [label="gini = 0.0\nsamples = 4\nvalue = [7, 0]"] ;
697 -> 699 ;
700 [label="SentimentRating <= 0.5\ngini = 0.26\nsamples = 4\nvalue = [2, 11]"] ;
696 -> 700 ;
701 [label="gini = 0.0\nsamples = 3\nvalue = [0, 11]"] ;
700 -> 701 ;
702 [label="gini = 0.0\nsamples = 1\nvalue = [2, 0]"] ;
700 -> 702 ;
703 [label="Available401K <= 0.5\ngini = 0.499\nsamples = 38\nvalue = [28, 31]"] ;
685 -> 703 ;
704 [label="SentimentRating <= 0.5\ngini = 0.455\nsamples = 13\nvalue = [13, 7]"] ;
703 -> 704 ;
705 [label="EstimatedYearlyIncome <= 6.0\ngini = 0.415\nsamples = 11\nvalue = [12, 5]"] ;
704 -> 705 ;
706 [label="ChurnScore <= 0.5\ngini = 0.494\nsamples = 7\nvalue = [4, 5]"] ;
705 -> 706 ;
707 [label="gini = 0.0\nsamples = 1\nvalue = [3, 0]"] ;
706 -> 707 ;
708 [label="CallActivity <= 1.5\ngini = 0.278\nsamples = 6\nvalue = [1, 5]"] ;
706 -> 708 ;
709 [label="gini = 0.0\nsamples = 1\nvalue = [0, 1]"] ;
708 -> 709 ;
710 [label="MaritalStatus <= 0.5\ngini = 0.32\nsamples = 5\nvalue = [1, 4]"] ;
708 -> 710 ;
711 [label="ChurnScore <= 2.0\ngini = 0.5\nsamples = 2\nvalue = [1, 1]"] ;
710 -> 711 ;
712 [label="gini = 0.0\nsamples = 1\nvalue = [1, 0]"] ;
711 -> 712 ;
713 [label="gini = 0.0\nsamples = 1\nvalue = [0, 1]"] ;
711 -> 713 ;
714 [label="gini = 0.0\nsamples = 3\nvalue = [0, 3]"] ;
710 -> 714 ;
715 [label="gini = 0.0\nsamples = 4\nvalue = [8, 0]"] ;
705 -> 715 ;
716 [label="MaritalStatus <= 0.5\ngini = 0.444\nsamples = 2\nvalue = [1, 2]"] ;
704 -> 716 ;
717 [label="gini = 0.0\nsamples = 1\nvalue = [0, 2]"] ;
716 -> 717 ;
718 [label="gini = 0.0\nsamples = 1\nvalue = [1, 0]"] ;
716 -> 718 ;
719 [label="EstimatedYearlyIncome <= 4.5\ngini = 0.473\nsamples = 25\nvalue = [15, 24]"] ;
703 -> 719 ;
720 [label="WebActivity <= 0.5\ngini = 0.423\nsamples = 15\nvalue = [7, 16]"] ;
719 -> 720 ;
721 [label="Gender <= 0.5\ngini = 0.444\nsamples = 14\nvalue = [7, 14]"] ;
720 -> 721 ;
722 [label="ChurnScore <= 0.5\ngini = 0.375\nsamples = 7\nvalue = [3, 9]"] ;
721 -> 722 ;
723 [label="gini = 0.0\nsamples = 2\nvalue = [0, 4]"] ;
722 -> 723 ;
724 [label="SentimentRating <= 0.5\ngini = 0.469\nsamples = 5\nvalue = [3, 5]"] ;
722 -> 724 ;
725 [label="gini = 0.0\nsamples = 3\nvalue = [0, 5]"] ;
724 -> 725 ;
726 [label="gini = 0.0\nsamples = 2\nvalue = [3, 0]"] ;
724 -> 726 ;
727 [label="MaritalStatus <= 0.5\ngini = 0.494\nsamples = 7\nvalue = [4, 5]"] ;
721 -> 727 ;
728 [label="SentimentRating <= 0.5\ngini = 0.5\nsamples = 4\nvalue = [3, 3]"] ;
727 -> 728 ;
729 [label="ChurnScore <= 0.5\ngini = 0.48\nsamples = 3\nvalue = [3, 2]"] ;
728 -> 729 ;
730 [label="gini = 0.0\nsamples = 2\nvalue = [3, 0]"] ;
729 -> 730 ;
731 [label="gini = 0.0\nsamples = 1\nvalue = [0, 2]"] ;
729 -> 731 ;
732 [label="gini = 0.0\nsamples = 1\nvalue = [0, 1]"] ;
728 -> 732 ;
733 [label="SentimentRating <= 0.5\ngini = 0.444\nsamples = 3\nvalue = [1, 2]"] ;
727 -> 733 ;
734 [label="gini = 0.0\nsamples = 2\nvalue = [0, 2]"] ;
733 -> 734 ;
735 [label="gini = 0.0\nsamples = 1\nvalue = [1, 0]"] ;
733 -> 735 ;
736 [label="gini = 0.0\nsamples = 1\nvalue = [0, 2]"] ;
720 -> 736 ;
737 [label="NumberOfContracts <= 0.5\ngini = 0.5\nsamples = 10\nvalue = [8, 8]"] ;
719 -> 737 ;
738 [label="CallActivity <= 2.5\ngini = 0.32\nsamples = 4\nvalue = [4, 1]"] ;
737 -> 738 ;
739 [label="ChurnScore <= 1.0\ngini = 0.444\nsamples = 3\nvalue = [2, 1]"] ;
738 -> 739 ;
740 [label="gini = 0.0\nsamples = 2\nvalue = [2, 0]"] ;
739 -> 740 ;
741 [label="gini = 0.0\nsamples = 1\nvalue = [0, 1]"] ;
739 -> 741 ;
742 [label="gini = 0.0\nsamples = 1\nvalue = [2, 0]"] ;
738 -> 742 ;
743 [label="ChurnScore <= 1.5\ngini = 0.463\nsamples = 6\nvalue = [4, 7]"] ;
737 -> 743 ;
744 [label="gini = 0.0\nsamples = 3\nvalue = [0, 5]"] ;
743 -> 744 ;
745 [label="ChurnScore <= 2.5\ngini = 0.444\nsamples = 3\nvalue = [4, 2]"] ;
743 -> 745 ;
746 [label="gini = 0.0\nsamples = 2\nvalue = [4, 0]"] ;
745 -> 746 ;
747 [label="gini = 0.0\nsamples = 1\nvalue = [0, 2]"] ;
745 -> 747 ;
748 [label="NumberOfContracts <= 0.5\ngini = 0.46\nsamples = 839\nvalue = [475, 852]"] ;
640 -> 748 ;
749 [label="EstimatedYearlyIncome <= 4.5\ngini = 0.498\nsamples = 310\nvalue = [222, 255]"] ;
748 -> 749 ;
750 [label="MaritalStatus <= 0.5\ngini = 0.401\nsamples = 68\nvalue = [30, 78]"] ;
749 -> 750 ;
751 [label="CallActivity <= 2.5\ngini = 0.352\nsamples = 58\nvalue = [21, 71]"] ;
750 -> 751 ;
752 [label="EstimatedYearlyIncome <= 3.5\ngini = 0.372\nsamples = 52\nvalue = [21, 64]"] ;
751 -> 752 ;
753 [label="Gender <= 0.5\ngini = 0.337\nsamples = 10\nvalue = [3, 11]"] ;
752 -> 753 ;
754 [label="ChurnScore <= 1.5\ngini = 0.153\nsamples = 8\nvalue = [1, 11]"] ;
753 -> 754 ;
755 [label="WebActivity <= 0.5\ngini = 0.278\nsamples = 4\nvalue = [1, 5]"] ;
754 -> 755 ;
756 [label="gini = 0.0\nsamples = 1\nvalue = [0, 2]"] ;
755 -> 756 ;
757 [label="ChurnScore <= 0.5\ngini = 0.375\nsamples = 3\nvalue = [1, 3]"] ;
755 -> 757 ;
758 [label="gini = 0.0\nsamples = 2\nvalue = [0, 3]"] ;
757 -> 758 ;
759 [label="gini = 0.0\nsamples = 1\nvalue = [1, 0]"] ;
757 -> 759 ;
760 [label="gini = 0.0\nsamples = 4\nvalue = [0, 6]"] ;
754 -> 760 ;
761 [label="gini = 0.0\nsamples = 2\nvalue = [2, 0]"] ;
753 -> 761 ;
762 [label="ChurnScore <= 1.5\ngini = 0.378\nsamples = 42\nvalue = [18, 53]"] ;
752 -> 762 ;
763 [label="Available401K <= 0.5\ngini = 0.435\nsamples = 30\nvalue = [16, 34]"] ;
762 -> 763 ;
764 [label="ChurnScore <= 0.5\ngini = 0.5\nsamples = 3\nvalue = [3, 3]"] ;
763 -> 764 ;
765 [label="gini = 0.0\nsamples = 2\nvalue = [3, 0]"] ;
764 -> 765 ;
766 [label="gini = 0.0\nsamples = 1\nvalue = [0, 3]"] ;
764 -> 766 ;
767 [label="Age <= 9.5\ngini = 0.416\nsamples = 27\nvalue = [13, 31]"] ;
763 -> 767 ;
768 [label="Gender <= 0.5\ngini = 0.43\nsamples = 20\nvalue = [10, 22]"] ;
767 -> 768 ;
769 [label="Products <= 2.5\ngini = 0.5\nsamples = 9\nvalue = [6, 6]"] ;
768 -> 769 ;
770 [label="ChurnScore <= 0.5\ngini = 0.469\nsamples = 7\nvalue = [5, 3]"] ;
769 -> 770 ;
771 [label="WebActivity <= 0.5\ngini = 0.5\nsamples = 2\nvalue = [1, 1]"] ;
770 -> 771 ;
772 [label="gini = 0.0\nsamples = 1\nvalue = [1, 0]"] ;
771 -> 772 ;
773 [label="gini = 0.0\nsamples = 1\nvalue = [0, 1]"] ;
771 -> 773 ;
774 [label="WebActivity <= 0.5\ngini = 0.444\nsamples = 5\nvalue = [4, 2]"] ;
770 -> 774 ;
775 [label="gini = 0.0\nsamples = 2\nvalue = [2, 0]"] ;
774 -> 775 ;
776 [label="gini = 0.5\nsamples = 3\nvalue = [2, 2]"] ;
774 -> 776 ;
777 [label="gini = 0.375\nsamples = 2\nvalue = [1, 3]"] ;
769 -> 777 ;
778 [label="WebActivity <= 0.5\ngini = 0.32\nsamples = 11\nvalue = [4, 16]"] ;
768 -> 778 ;
779 [label="ChurnScore <= 0.5\ngini = 0.49\nsamples = 4\nvalue = [3, 4]"] ;
778 -> 779 ;
780 [label="gini = 0.0\nsamples = 1\nvalue = [1, 0]"] ;
779 -> 780 ;
781 [label="SentimentRating <= 0.5\ngini = 0.444\nsamples = 3\nvalue = [2, 4]"] ;
779 -> 781 ;
782 [label="gini = 0.0\nsamples = 1\nvalue = [0, 4]"] ;
781 -> 782 ;
783 [label="gini = 0.0\nsamples = 2\nvalue = [2, 0]"] ;
781 -> 783 ;
784 [label="ChurnScore <= 0.5\ngini = 0.142\nsamples = 7\nvalue = [1, 12]"] ;
778 -> 784 ;
785 [label="gini = 0.0\nsamples = 4\nvalue = [0, 9]"] ;
784 -> 785 ;
786 [label="gini = 0.375\nsamples = 3\nvalue = [1, 3]"] ;
784 -> 786 ;
787 [label="ChurnScore <= 0.5\ngini = 0.375\nsamples = 7\nvalue = [3, 9]"] ;
767 -> 787 ;
788 [label="Gender <= 0.5\ngini = 0.397\nsamples = 6\nvalue = [3, 8]"] ;
787 -> 788 ;
789 [label="Age <= 10.5\ngini = 0.278\nsamples = 3\nvalue = [1, 5]"] ;
788 -> 789 ;
790 [label="gini = 0.0\nsamples = 1\nvalue = [0, 2]"] ;
789 -> 790 ;
791 [label="gini = 0.375\nsamples = 2\nvalue = [1, 3]"] ;
789 -> 791 ;
792 [label="Products <= 2.5\ngini = 0.48\nsamples = 3\nvalue = [2, 3]"] ;
788 -> 792 ;
793 [label="gini = 0.0\nsamples = 1\nvalue = [0, 2]"] ;
792 -> 793 ;
794 [label="gini = 0.444\nsamples = 2\nvalue = [2, 1]"] ;
792 -> 794 ;
795 [label="gini = 0.0\nsamples = 1\nvalue = [0, 1]"] ;
787 -> 795 ;
796 [label="Gender <= 0.5\ngini = 0.172\nsamples = 12\nvalue = [2, 19]"] ;
762 -> 796 ;
797 [label="Age <= 10.5\ngini = 0.198\nsamples = 10\nvalue = [2, 16]"] ;
796 -> 797 ;
798 [label="gini = 0.0\nsamples = 4\nvalue = [0, 6]"] ;
797 -> 798 ;
799 [label="gini = 0.278\nsamples = 6\nvalue = [2, 10]"] ;
797 -> 799 ;
800 [label="gini = 0.0\nsamples = 2\nvalue = [0, 3]"] ;
796 -> 800 ;
801 [label="gini = 0.0\nsamples = 6\nvalue = [0, 7]"] ;
751 -> 801 ;
802 [label="EstimatedYearlyIncome <= 3.5\ngini = 0.492\nsamples = 10\nvalue = [9, 7]"] ;
750 -> 802 ;
803 [label="Gender <= 0.5\ngini = 0.444\nsamples = 4\nvalue = [2, 4]"] ;
802 -> 803 ;
804 [label="ChurnScore <= 0.5\ngini = 0.5\nsamples = 3\nvalue = [2, 2]"] ;
803 -> 804 ;
805 [label="SentimentRating <= 0.5\ngini = 0.444\nsamples = 2\nvalue = [2, 1]"] ;
804 -> 805 ;
806 [label="gini = 0.0\nsamples = 1\nvalue = [2, 0]"] ;
805 -> 806 ;
807 [label="gini = 0.0\nsamples = 1\nvalue = [0, 1]"] ;
805 -> 807 ;
808 [label="gini = 0.0\nsamples = 1\nvalue = [0, 1]"] ;
804 -> 808 ;
809 [label="gini = 0.0\nsamples = 1\nvalue = [0, 2]"] ;
803 -> 809 ;
810 [label="CallActivity <= 1.5\ngini = 0.42\nsamples = 6\nvalue = [7, 3]"] ;
802 -> 810 ;
811 [label="gini = 0.0\nsamples = 1\nvalue = [0, 2]"] ;
810 -> 811 ;
812 [label="ChurnScore <= 0.5\ngini = 0.219\nsamples = 5\nvalue = [7, 1]"] ;
810 -> 812 ;
813 [label="gini = 0.0\nsamples = 3\nvalue = [6, 0]"] ;
812 -> 813 ;
814 [label="SentimentRating <= 0.5\ngini = 0.5\nsamples = 2\nvalue = [1, 1]"] ;
812 -> 814 ;
815 [label="gini = 0.0\nsamples = 1\nvalue = [0, 1]"] ;
814 -> 815 ;
816 [label="gini = 0.0\nsamples = 1\nvalue = [1, 0]"] ;
814 -> 816 ;
817 [label="WebActivity <= 0.5\ngini = 0.499\nsamples = 242\nvalue = [192, 177]"] ;
749 -> 817 ;
818 [label="Available401K <= 0.5\ngini = 0.493\nsamples = 210\nvalue = [180, 143]"] ;
817 -> 818 ;
819 [label="Age <= 13.0\ngini = 0.497\nsamples = 42\nvalue = [29, 34]"] ;
818 -> 819 ;
820 [label="CallActivity <= 2.5\ngini = 0.266\nsamples = 13\nvalue = [3, 16]"] ;
819 -> 820 ;
821 [label="Gender <= 0.5\ngini = 0.444\nsamples = 2\nvalue = [2, 1]"] ;
820 -> 821 ;
822 [label="gini = 0.0\nsamples = 1\nvalue = [0, 1]"] ;
821 -> 822 ;
823 [label="gini = 0.0\nsamples = 1\nvalue = [2, 0]"] ;
821 -> 823 ;
824 [label="Age <= 9.5\ngini = 0.117\nsamples = 11\nvalue = [1, 15]"] ;
820 -> 824 ;
825 [label="MaritalStatus <= 0.5\ngini = 0.278\nsamples = 4\nvalue = [1, 5]"] ;
824 -> 825 ;
826 [label="ChurnScore <= 1.0\ngini = 0.375\nsamples = 3\nvalue = [1, 3]"] ;
825 -> 826 ;
827 [label="gini = 0.0\nsamples = 1\nvalue = [0, 2]"] ;
826 -> 827 ;
828 [label="gini = 0.5\nsamples = 2\nvalue = [1, 1]"] ;
826 -> 828 ;
829 [label="gini = 0.0\nsamples = 1\nvalue = [0, 2]"] ;
825 -> 829 ;
830 [label="gini = 0.0\nsamples = 7\nvalue = [0, 10]"] ;
824 -> 830 ;
831 [label="ChurnScore <= 0.5\ngini = 0.483\nsamples = 29\nvalue = [26, 18]"] ;
819 -> 831 ;
832 [label="gini = 0.0\nsamples = 13\nvalue = [20, 0]"] ;
831 -> 832 ;
833 [label="EstimatedYearlyIncome <= 5.5\ngini = 0.375\nsamples = 16\nvalue = [6, 18]"] ;
831 -> 833 ;
834 [label="MaritalStatus <= 0.5\ngini = 0.469\nsamples = 11\nvalue = [6, 10]"] ;
833 -> 834 ;
835 [label="gini = 0.0\nsamples = 2\nvalue = [2, 0]"] ;
834 -> 835 ;
836 [label="Gender <= 0.5\ngini = 0.408\nsamples = 9\nvalue = [4, 10]"] ;
834 -> 836 ;
837 [label="gini = 0.0\nsamples = 3\nvalue = [0, 4]"] ;
836 -> 837 ;
838 [label="CallActivity <= 2.5\ngini = 0.48\nsamples = 6\nvalue = [4, 6]"] ;
836 -> 838 ;
839 [label="ChurnScore <= 1.5\ngini = 0.49\nsamples = 4\nvalue = [4, 3]"] ;
838 -> 839 ;
840 [label="gini = 0.32\nsamples = 3\nvalue = [4, 1]"] ;
839 -> 840 ;
841 [label="gini = 0.0\nsamples = 1\nvalue = [0, 2]"] ;
839 -> 841 ;
842 [label="gini = 0.0\nsamples = 2\nvalue = [0, 3]"] ;
838 -> 842 ;
843 [label="gini = 0.0\nsamples = 5\nvalue = [0, 8]"] ;
833 -> 843 ;
844 [label="MaritalStatus <= 0.5\ngini = 0.487\nsamples = 168\nvalue = [151, 109]"] ;
818 -> 844 ;
845 [label="CallActivity <= 1.5\ngini = 0.444\nsamples = 106\nvalue = [114, 57]"] ;
844 -> 845 ;
846 [label="gini = 0.0\nsamples = 1\nvalue = [0, 2]"] ;
845 -> 846 ;
847 [label="EstimatedYearlyIncome <= 6.5\ngini = 0.439\nsamples = 105\nvalue = [114, 55]"] ;
845 -> 847 ;
848 [label="ChurnScore <= 0.5\ngini = 0.43\nsamples = 102\nvalue = [114, 52]"] ;
847 -> 848 ;
849 [label="CallActivity <= 2.5\ngini = 0.271\nsamples = 43\nvalue = [57, 11]"] ;
848 -> 849 ;
850 [label="Age <= 9.5\ngini = 0.165\nsamples = 13\nvalue = [20, 2]"] ;
849 -> 850 ;
851 [label="Gender <= 0.5\ngini = 0.346\nsamples = 4\nvalue = [7, 2]"] ;
850 -> 851 ;
852 [label="gini = 0.444\nsamples = 2\nvalue = [2, 1]"] ;
851 -> 852 ;
853 [label="EstimatedYearlyIncome <= 5.5\ngini = 0.278\nsamples = 2\nvalue = [5, 1]"] ;
851 -> 853 ;
854 [label="gini = 0.0\nsamples = 1\nvalue = [5, 0]"] ;
853 -> 854 ;
855 [label="gini = 0.0\nsamples = 1\nvalue = [0, 1]"] ;
853 -> 855 ;
856 [label="gini = 0.0\nsamples = 9\nvalue = [13, 0]"] ;
850 -> 856 ;
857 [label="SentimentRating <= 0.5\ngini = 0.315\nsamples = 30\nvalue = [37, 9]"] ;
849 -> 857 ;
858 [label="gini = 0.0\nsamples = 8\nvalue = [14, 0]"] ;
857 -> 858 ;
859 [label="Age <= 10.5\ngini = 0.404\nsamples = 22\nvalue = [23, 9]"] ;
857 -> 859 ;
860 [label="Gender <= 0.5\ngini = 0.291\nsamples = 12\nvalue = [14, 3]"] ;
859 -> 860 ;
861 [label="Age <= 9.5\ngini = 0.153\nsamples = 8\nvalue = [11, 1]"] ;
860 -> 861 ;
862 [label="gini = 0.32\nsamples = 2\nvalue = [4, 1]"] ;
861 -> 862 ;
863 [label="gini = 0.0\nsamples = 6\nvalue = [7, 0]"] ;
861 -> 863 ;
864 [label="gini = 0.48\nsamples = 4\nvalue = [3, 2]"] ;
860 -> 864 ;
865 [label="Gender <= 0.5\ngini = 0.48\nsamples = 10\nvalue = [9, 6]"] ;
859 -> 865 ;
866 [label="Age <= 11.5\ngini = 0.408\nsamples = 5\nvalue = [5, 2]"] ;
865 -> 866 ;
867 [label="gini = 0.444\nsamples = 3\nvalue = [2, 1]"] ;
866 -> 867 ;
868 [label="gini = 0.375\nsamples = 2\nvalue = [3, 1]"] ;
866 -> 868 ;
869 [label="Age <= 11.5\ngini = 0.5\nsamples = 5\nvalue = [4, 4]"] ;
865 -> 869 ;
870 [label="gini = 0.0\nsamples = 1\nvalue = [0, 3]"] ;
869 -> 870 ;
871 [label="gini = 0.32\nsamples = 4\nvalue = [4, 1]"] ;
869 -> 871 ;
872 [label="ChurnScore <= 1.5\ngini = 0.487\nsamples = 59\nvalue = [57, 41]"] ;
848 -> 872 ;
873 [label="Gender <= 0.5\ngini = 0.483\nsamples = 12\nvalue = [13, 9]"] ;
872 -> 873 ;
874 [label="Age <= 12.5\ngini = 0.498\nsamples = 8\nvalue = [8, 7]"] ;
873 -> 874 ;
875 [label="gini = 0.0\nsamples = 5\nvalue = [8, 0]"] ;
874 -> 875 ;
876 [label="gini = 0.0\nsamples = 3\nvalue = [0, 7]"] ;
874 -> 876 ;
877 [label="Age <= 12.5\ngini = 0.408\nsamples = 4\nvalue = [5, 2]"] ;
873 -> 877 ;
878 [label="gini = 0.0\nsamples = 3\nvalue = [5, 0]"] ;
877 -> 878 ;
879 [label="gini = 0.0\nsamples = 1\nvalue = [0, 2]"] ;
877 -> 879 ;
880 [label="SentimentRating <= 0.5\ngini = 0.488\nsamples = 47\nvalue = [44, 32]"] ;
872 -> 880 ;
881 [label="Age <= 15.5\ngini = 0.18\nsamples = 12\nvalue = [18, 2]"] ;
880 -> 881 ;
882 [label="gini = 0.0\nsamples = 11\nvalue = [18, 0]"] ;
881 -> 882 ;
883 [label="gini = 0.0\nsamples = 1\nvalue = [0, 2]"] ;
881 -> 883 ;
884 [label="EstimatedYearlyIncome <= 5.5\ngini = 0.497\nsamples = 35\nvalue = [26, 30]"] ;
880 -> 884 ;
885 [label="Gender <= 0.5\ngini = 0.496\nsamples = 33\nvalue = [24, 29]"] ;
884 -> 885 ;
886 [label="Age <= 10.5\ngini = 0.494\nsamples = 15\nvalue = [12, 15]"] ;
885 -> 886 ;
887 [label="Age <= 9.5\ngini = 0.444\nsamples = 9\nvalue = [5, 10]"] ;
886 -> 887 ;
888 [label="CallActivity <= 2.5\ngini = 0.444\nsamples = 3\nvalue = [2, 4]"] ;
887 -> 888 ;
889 [label="gini = 0.0\nsamples = 2\nvalue = [0, 4]"] ;
888 -> 889 ;
890 [label="gini = 0.0\nsamples = 1\nvalue = [2, 0]"] ;
888 -> 890 ;
891 [label="CallActivity <= 2.5\ngini = 0.444\nsamples = 6\nvalue = [3, 6]"] ;
887 -> 891 ;
892 [label="gini = 0.0\nsamples = 1\nvalue = [0, 3]"] ;
891 -> 892 ;
893 [label="gini = 0.5\nsamples = 5\nvalue = [3, 3]"] ;
891 -> 893 ;
894 [label="Age <= 11.5\ngini = 0.486\nsamples = 6\nvalue = [7, 5]"] ;
886 -> 894 ;
895 [label="CallActivity <= 2.5\ngini = 0.49\nsamples = 3\nvalue = [4, 3]"] ;
894 -> 895 ;
896 [label="gini = 0.0\nsamples = 1\nvalue = [0, 3]"] ;
895 -> 896 ;
897 [label="gini = 0.0\nsamples = 2\nvalue = [4, 0]"] ;
895 -> 897 ;
898 [label="gini = 0.48\nsamples = 3\nvalue = [3, 2]"] ;
894 -> 898 ;
899 [label="Age <= 10.5\ngini = 0.497\nsamples = 18\nvalue = [12, 14]"] ;
885 -> 899 ;
900 [label="Age <= 9.5\ngini = 0.483\nsamples = 15\nvalue = [9, 13]"] ;
899 -> 900 ;
901 [label="CallActivity <= 2.5\ngini = 0.469\nsamples = 11\nvalue = [6, 10]"] ;
900 -> 901 ;
902 [label="gini = 0.48\nsamples = 8\nvalue = [4, 6]"] ;
901 -> 902 ;
903 [label="gini = 0.444\nsamples = 3\nvalue = [2, 4]"] ;
901 -> 903 ;
904 [label="gini = 0.5\nsamples = 4\nvalue = [3, 3]"] ;
900 -> 904 ;
905 [label="Age <= 11.5\ngini = 0.375\nsamples = 3\nvalue = [3, 1]"] ;
899 -> 905 ;
906 [label="gini = 0.444\nsamples = 2\nvalue = [2, 1]"] ;
905 -> 906 ;
907 [label="gini = 0.0\nsamples = 1\nvalue = [1, 0]"] ;
905 -> 907 ;
908 [label="Gender <= 0.5\ngini = 0.444\nsamples = 2\nvalue = [2, 1]"] ;
884 -> 908 ;
909 [label="gini = 0.0\nsamples = 1\nvalue = [2, 0]"] ;
908 -> 909 ;
910 [label="gini = 0.0\nsamples = 1\nvalue = [0, 1]"] ;
908 -> 910 ;
911 [label="gini = 0.0\nsamples = 3\nvalue = [0, 3]"] ;
847 -> 911 ;
912 [label="SentimentRating <= 0.5\ngini = 0.486\nsamples = 62\nvalue = [37, 52]"] ;
844 -> 912 ;
913 [label="Age <= 14.5\ngini = 0.492\nsamples = 29\nvalue = [17, 22]"] ;
912 -> 913 ;
914 [label="EstimatedYearlyIncome <= 6.0\ngini = 0.32\nsamples = 7\nvalue = [8, 2]"] ;
913 -> 914 ;
915 [label="Gender <= 0.5\ngini = 0.375\nsamples = 5\nvalue = [6, 2]"] ;
914 -> 915 ;
916 [label="ChurnScore <= 1.5\ngini = 0.48\nsamples = 4\nvalue = [3, 2]"] ;
915 -> 916 ;
917 [label="gini = 0.0\nsamples = 3\nvalue = [3, 0]"] ;
916 -> 917 ;
918 [label="gini = 0.0\nsamples = 1\nvalue = [0, 2]"] ;
916 -> 918 ;
919 [label="gini = 0.0\nsamples = 1\nvalue = [3, 0]"] ;
915 -> 919 ;
920 [label="gini = 0.0\nsamples = 2\nvalue = [2, 0]"] ;
914 -> 920 ;
921 [label="CallActivity <= 2.5\ngini = 0.428\nsamples = 22\nvalue = [9, 20]"] ;
913 -> 921 ;
922 [label="ChurnScore <= 0.5\ngini = 0.494\nsamples = 14\nvalue = [8, 10]"] ;
921 -> 922 ;
923 [label="gini = 0.0\nsamples = 6\nvalue = [6, 0]"] ;
922 -> 923 ;
924 [label="ChurnScore <= 1.5\ngini = 0.278\nsamples = 8\nvalue = [2, 10]"] ;
922 -> 924 ;
925 [label="EstimatedYearlyIncome <= 6.0\ngini = 0.346\nsamples = 5\nvalue = [2, 7]"] ;
924 -> 925 ;
926 [label="gini = 0.408\nsamples = 4\nvalue = [2, 5]"] ;
925 -> 926 ;
927 [label="gini = 0.0\nsamples = 1\nvalue = [0, 2]"] ;
925 -> 927 ;
928 [label="gini = 0.0\nsamples = 3\nvalue = [0, 3]"] ;
924 -> 928 ;
929 [label="Gender <= 0.5\ngini = 0.165\nsamples = 8\nvalue = [1, 10]"] ;
921 -> 929 ;
930 [label="gini = 0.0\nsamples = 3\nvalue = [0, 4]"] ;
929 -> 930 ;
931 [label="ChurnScore <= 1.0\ngini = 0.245\nsamples = 5\nvalue = [1, 6]"] ;
929 -> 931 ;
932 [label="gini = 0.0\nsamples = 1\nvalue = [1, 0]"] ;
931 -> 932 ;
933 [label="gini = 0.0\nsamples = 4\nvalue = [0, 6]"] ;
931 -> 933 ;
934 [label="CallActivity <= 2.5\ngini = 0.48\nsamples = 33\nvalue = [20, 30]"] ;
912 -> 934 ;
935 [label="ChurnScore <= 1.5\ngini = 0.403\nsamples = 16\nvalue = [7, 18]"] ;
934 -> 935 ;
936 [label="Gender <= 0.5\ngini = 0.444\nsamples = 13\nvalue = [7, 14]"] ;
935 -> 936 ;
937 [label="Age <= 10.5\ngini = 0.457\nsamples = 10\nvalue = [6, 11]"] ;
936 -> 937 ;
938 [label="ChurnScore <= 0.5\ngini = 0.49\nsamples = 7\nvalue = [6, 8]"] ;
937 -> 938 ;
939 [label="gini = 0.463\nsamples = 5\nvalue = [4, 7]"] ;
938 -> 939 ;
940 [label="gini = 0.444\nsamples = 2\nvalue = [2, 1]"] ;
938 -> 940 ;
941 [label="gini = 0.0\nsamples = 3\nvalue = [0, 3]"] ;
937 -> 941 ;
942 [label="Age <= 9.5\ngini = 0.375\nsamples = 3\nvalue = [1, 3]"] ;
936 -> 942 ;
943 [label="gini = 0.0\nsamples = 1\nvalue = [0, 1]"] ;
942 -> 943 ;
944 [label="ChurnScore <= 0.5\ngini = 0.444\nsamples = 2\nvalue = [1, 2]"] ;
942 -> 944 ;
945 [label="gini = 0.0\nsamples = 1\nvalue = [0, 2]"] ;
944 -> 945 ;
946 [label="gini = 0.0\nsamples = 1\nvalue = [1, 0]"] ;
944 -> 946 ;
947 [label="gini = 0.0\nsamples = 3\nvalue = [0, 4]"] ;
935 -> 947 ;
948 [label="ChurnScore <= 1.0\ngini = 0.499\nsamples = 17\nvalue = [13, 12]"] ;
934 -> 948 ;
949 [label="gini = 0.0\nsamples = 5\nvalue = [0, 7]"] ;
948 -> 949 ;
950 [label="Gender <= 0.5\ngini = 0.401\nsamples = 12\nvalue = [13, 5]"] ;
948 -> 950 ;
951 [label="Age <= 10.5\ngini = 0.375\nsamples = 5\nvalue = [6, 2]"] ;
950 -> 951 ;
952 [label="gini = 0.0\nsamples = 3\nvalue = [5, 0]"] ;
951 -> 952 ;
953 [label="Age <= 11.5\ngini = 0.444\nsamples = 2\nvalue = [1, 2]"] ;
951 -> 953 ;
954 [label="gini = 0.0\nsamples = 1\nvalue = [0, 2]"] ;
953 -> 954 ;
955 [label="gini = 0.0\nsamples = 1\nvalue = [1, 0]"] ;
953 -> 955 ;
956 [label="EstimatedYearlyIncome <= 5.5\ngini = 0.42\nsamples = 7\nvalue = [7, 3]"] ;
950 -> 956 ;
957 [label="Age <= 10.5\ngini = 0.346\nsamples = 6\nvalue = [7, 2]"] ;
956 -> 957 ;
958 [label="gini = 0.0\nsamples = 1\nvalue = [0, 1]"] ;
957 -> 958 ;
959 [label="gini = 0.219\nsamples = 5\nvalue = [7, 1]"] ;
957 -> 959 ;
960 [label="gini = 0.0\nsamples = 1\nvalue = [0, 1]"] ;
956 -> 960 ;
961 [label="Age <= 9.5\ngini = 0.386\nsamples = 32\nvalue = [12, 34]"] ;
817 -> 961 ;
962 [label="gini = 0.0\nsamples = 7\nvalue = [0, 10]"] ;
961 -> 962 ;
963 [label="ChurnScore <= 0.5\ngini = 0.444\nsamples = 25\nvalue = [12, 24]"] ;
961 -> 963 ;
964 [label="Gender <= 0.5\ngini = 0.465\nsamples = 13\nvalue = [7, 12]"] ;
963 -> 964 ;
965 [label="EstimatedYearlyIncome <= 5.5\ngini = 0.494\nsamples = 7\nvalue = [5, 4]"] ;
964 -> 965 ;
966 [label="gini = 0.278\nsamples = 4\nvalue = [5, 1]"] ;
965 -> 966 ;
967 [label="gini = 0.0\nsamples = 3\nvalue = [0, 3]"] ;
965 -> 967 ;
968 [label="CallActivity <= 1.5\ngini = 0.32\nsamples = 6\nvalue = [2, 8]"] ;
964 -> 968 ;
969 [label="gini = 0.0\nsamples = 1\nvalue = [0, 1]"] ;
968 -> 969 ;
970 [label="gini = 0.346\nsamples = 5\nvalue = [2, 7]"] ;
968 -> 970 ;
971 [label="Gender <= 0.5\ngini = 0.415\nsamples = 12\nvalue = [5, 12]"] ;
963 -> 971 ;
972 [label="Available401K <= 0.5\ngini = 0.397\nsamples = 8\nvalue = [3, 8]"] ;
971 -> 972 ;
973 [label="gini = 0.0\nsamples = 1\nvalue = [0, 1]"] ;
972 -> 973 ;
974 [label="EstimatedYearlyIncome <= 5.5\ngini = 0.42\nsamples = 7\nvalue = [3, 7]"] ;
972 -> 974 ;
975 [label="gini = 0.444\nsamples = 6\nvalue = [3, 6]"] ;
974 -> 975 ;
976 [label="gini = 0.0\nsamples = 1\nvalue = [0, 1]"] ;
974 -> 976 ;
977 [label="EstimatedYearlyIncome <= 5.5\ngini = 0.444\nsamples = 4\nvalue = [2, 4]"] ;
971 -> 977 ;
978 [label="Available401K <= 0.5\ngini = 0.444\nsamples = 3\nvalue = [2, 1]"] ;
977 -> 978 ;
979 [label="gini = 0.0\nsamples = 1\nvalue = [0, 1]"] ;
978 -> 979 ;
980 [label="gini = 0.0\nsamples = 2\nvalue = [2, 0]"] ;
978 -> 980 ;
981 [label="gini = 0.0\nsamples = 1\nvalue = [0, 3]"] ;
977 -> 981 ;
982 [label="Products <= 1.5\ngini = 0.418\nsamples = 529\nvalue = [253, 597]"] ;
748 -> 982 ;
983 [label="EstimatedYearlyIncome <= 5.5\ngini = 0.134\nsamples = 41\nvalue = [5, 64]"] ;
982 -> 983 ;
984 [label="MaritalStatus <= 0.5\ngini = 0.146\nsamples = 37\nvalue = [5, 58]"] ;
983 -> 984 ;
985 [label="Available401K <= 0.5\ngini = 0.408\nsamples = 8\nvalue = [4, 10]"] ;
984 -> 985 ;
986 [label="ChurnScore <= 1.0\ngini = 0.18\nsamples = 5\nvalue = [1, 9]"] ;
985 -> 986 ;
987 [label="gini = 0.0\nsamples = 4\nvalue = [0, 9]"] ;
986 -> 987 ;
988 [label="gini = 0.0\nsamples = 1\nvalue = [1, 0]"] ;
986 -> 988 ;
989 [label="ChurnScore <= 1.0\ngini = 0.375\nsamples = 3\nvalue = [3, 1]"] ;
985 -> 989 ;
990 [label="gini = 0.0\nsamples = 1\nvalue = [0, 1]"] ;
989 -> 990 ;
991 [label="gini = 0.0\nsamples = 2\nvalue = [3, 0]"] ;
989 -> 991 ;
992 [label="ChurnScore <= 1.0\ngini = 0.04\nsamples = 29\nvalue = [1, 48]"] ;
984 -> 992 ;
993 [label="gini = 0.0\nsamples = 15\nvalue = [0, 24]"] ;
992 -> 993 ;
994 [label="Available401K <= 0.5\ngini = 0.077\nsamples = 14\nvalue = [1, 24]"] ;
992 -> 994 ;
995 [label="Gender <= 0.5\ngini = 0.142\nsamples = 8\nvalue = [1, 12]"] ;
994 -> 995 ;
996 [label="gini = 0.0\nsamples = 4\nvalue = [0, 6]"] ;
995 -> 996 ;
997 [label="Age <= 13.5\ngini = 0.245\nsamples = 4\nvalue = [1, 6]"] ;
995 -> 997 ;
998 [label="gini = 0.0\nsamples = 1\nvalue = [0, 2]"] ;
997 -> 998 ;
999 [label="gini = 0.32\nsamples = 3\nvalue = [1, 4]"] ;
997 -> 999 ;
1000 [label="gini = 0.0\nsamples = 6\nvalue = [0, 12]"] ;
994 -> 1000 ;
1001 [label="gini = 0.0\nsamples = 4\nvalue = [0, 6]"] ;
983 -> 1001 ;
1002 [label="ChurnScore <= 2.5\ngini = 0.433\nsamples = 488\nvalue = [248, 533]"] ;
982 -> 1002 ;
1003 [label="SentimentRating <= 0.5\ngini = 0.427\nsamples = 474\nvalue = [235, 526]"] ;
1002 -> 1003 ;
1004 [label="MaritalStatus <= 0.5\ngini = 0.465\nsamples = 143\nvalue = [83, 143]"] ;
1003 -> 1004 ;
1005 [label="Gender <= 0.5\ngini = 0.49\nsamples = 24\nvalue = [18, 24]"] ;
1004 -> 1005 ;
1006 [label="Available401K <= 0.5\ngini = 0.397\nsamples = 8\nvalue = [3, 8]"] ;
1005 -> 1006 ;
1007 [label="CallActivity <= 2.5\ngini = 0.408\nsamples = 4\nvalue = [2, 5]"] ;
1006 -> 1007 ;
1008 [label="gini = 0.0\nsamples = 1\nvalue = [0, 2]"] ;
1007 -> 1008 ;
1009 [label="Age <= 14.5\ngini = 0.48\nsamples = 3\nvalue = [2, 3]"] ;
1007 -> 1009 ;
1010 [label="gini = 0.0\nsamples = 2\nvalue = [0, 3]"] ;
1009 -> 1010 ;
1011 [label="gini = 0.0\nsamples = 1\nvalue = [2, 0]"] ;
1009 -> 1011 ;
1012 [label="CallActivity <= 2.5\ngini = 0.375\nsamples = 4\nvalue = [1, 3]"] ;
1006 -> 1012 ;
1013 [label="gini = 0.0\nsamples = 1\nvalue = [1, 0]"] ;
1012 -> 1013 ;
1014 [label="gini = 0.0\nsamples = 3\nvalue = [0, 3]"] ;
1012 -> 1014 ;
1015 [label="EstimatedYearlyIncome <= 4.5\ngini = 0.499\nsamples = 16\nvalue = [15, 16]"] ;
1005 -> 1015 ;
1016 [label="Products <= 3.5\ngini = 0.291\nsamples = 8\nvalue = [14, 3]"] ;
1015 -> 1016 ;
1017 [label="gini = 0.0\nsamples = 1\nvalue = [2, 0]"] ;
1016 -> 1017 ;
1018 [label="CallActivity <= 2.5\ngini = 0.32\nsamples = 7\nvalue = [12, 3]"] ;
1016 -> 1018 ;
1019 [label="Available401K <= 0.5\ngini = 0.5\nsamples = 2\nvalue = [3, 3]"] ;
1018 -> 1019 ;
1020 [label="gini = 0.0\nsamples = 1\nvalue = [3, 0]"] ;
1019 -> 1020 ;
1021 [label="gini = 0.0\nsamples = 1\nvalue = [0, 3]"] ;
1019 -> 1021 ;
1022 [label="gini = 0.0\nsamples = 5\nvalue = [9, 0]"] ;
1018 -> 1022 ;
1023 [label="Available401K <= 0.5\ngini = 0.133\nsamples = 8\nvalue = [1, 13]"] ;
1015 -> 1023 ;
1024 [label="gini = 0.0\nsamples = 3\nvalue = [0, 6]"] ;
1023 -> 1024 ;
1025 [label="CallActivity <= 3.5\ngini = 0.219\nsamples = 5\nvalue = [1, 7]"] ;
1023 -> 1025 ;
1026 [label="Age <= 15.5\ngini = 0.5\nsamples = 2\nvalue = [1, 1]"] ;
1025 -> 1026 ;
1027 [label="gini = 0.0\nsamples = 1\nvalue = [1, 0]"] ;
1026 -> 1027 ;
1028 [label="gini = 0.0\nsamples = 1\nvalue = [0, 1]"] ;
1026 -> 1028 ;
1029 [label="gini = 0.0\nsamples = 3\nvalue = [0, 6]"] ;
1025 -> 1029 ;
1030 [label="EstimatedYearlyIncome <= 6.5\ngini = 0.457\nsamples = 119\nvalue = [65, 119]"] ;
1004 -> 1030 ;
1031 [label="CallActivity <= 2.5\ngini = 0.486\nsamples = 99\nvalue = [62, 87]"] ;
1030 -> 1031 ;
1032 [label="Age <= 15.0\ngini = 0.491\nsamples = 34\nvalue = [30, 23]"] ;
1031 -> 1032 ;
1033 [label="Products <= 3.5\ngini = 0.5\nsamples = 30\nvalue = [23, 22]"] ;
1032 -> 1033 ;
1034 [label="EstimatedYearlyIncome <= 5.5\ngini = 0.495\nsamples = 27\nvalue = [22, 18]"] ;
1033 -> 1034 ;
1035 [label="Gender <= 0.5\ngini = 0.492\nsamples = 23\nvalue = [14, 18]"] ;
1034 -> 1035 ;
1036 [label="Age <= 13.5\ngini = 0.465\nsamples = 12\nvalue = [7, 12]"] ;
1035 -> 1036 ;
1037 [label="gini = 0.0\nsamples = 1\nvalue = [3, 0]"] ;
1036 -> 1037 ;
1038 [label="Available401K <= 0.5\ngini = 0.375\nsamples = 11\nvalue = [4, 12]"] ;
1036 -> 1038 ;
1039 [label="ChurnScore <= 1.0\ngini = 0.408\nsamples = 5\nvalue = [2, 5]"] ;
1038 -> 1039 ;
1040 [label="gini = 0.5\nsamples = 2\nvalue = [1, 1]"] ;
1039 -> 1040 ;
1041 [label="gini = 0.32\nsamples = 3\nvalue = [1, 4]"] ;
1039 -> 1041 ;
1042 [label="ChurnScore <= 1.0\ngini = 0.346\nsamples = 6\nvalue = [2, 7]"] ;
1038 -> 1042 ;
1043 [label="EstimatedYearlyIncome <= 4.5\ngini = 0.444\nsamples = 4\nvalue = [2, 4]"] ;
1042 -> 1043 ;
1044 [label="gini = 0.5\nsamples = 3\nvalue = [2, 2]"] ;
1043 -> 1044 ;
1045 [label="gini = 0.0\nsamples = 1\nvalue = [0, 2]"] ;
1043 -> 1045 ;
1046 [label="gini = 0.0\nsamples = 2\nvalue = [0, 3]"] ;
1042 -> 1046 ;
1047 [label="ChurnScore <= 1.0\ngini = 0.497\nsamples = 11\nvalue = [7, 6]"] ;
1035 -> 1047 ;
1048 [label="Available401K <= 0.5\ngini = 0.444\nsamples = 7\nvalue = [6, 3]"] ;
1047 -> 1048 ;
1049 [label="EstimatedYearlyIncome <= 4.5\ngini = 0.5\nsamples = 6\nvalue = [3, 3]"] ;
1048 -> 1049 ;
1050 [label="gini = 0.48\nsamples = 5\nvalue = [3, 2]"] ;
1049 -> 1050 ;
1051 [label="gini = 0.0\nsamples = 1\nvalue = [0, 1]"] ;
1049 -> 1051 ;
1052 [label="gini = 0.0\nsamples = 1\nvalue = [3, 0]"] ;
1048 -> 1052 ;
1053 [label="EstimatedYearlyIncome <= 4.5\ngini = 0.375\nsamples = 4\nvalue = [1, 3]"] ;
1047 -> 1053 ;
1054 [label="Age <= 13.5\ngini = 0.444\nsamples = 3\nvalue = [1, 2]"] ;
1053 -> 1054 ;
1055 [label="gini = 0.0\nsamples = 1\nvalue = [0, 1]"] ;
1054 -> 1055 ;
1056 [label="gini = 0.5\nsamples = 2\nvalue = [1, 1]"] ;
1054 -> 1056 ;
1057 [label="gini = 0.0\nsamples = 1\nvalue = [0, 1]"] ;
1053 -> 1057 ;
1058 [label="gini = 0.0\nsamples = 4\nvalue = [8, 0]"] ;
1034 -> 1058 ;
1059 [label="Gender <= 0.5\ngini = 0.32\nsamples = 3\nvalue = [1, 4]"] ;
1033 -> 1059 ;
1060 [label="gini = 0.0\nsamples = 1\nvalue = [0, 1]"] ;
1059 -> 1060 ;
1061 [label="ChurnScore <= 1.0\ngini = 0.375\nsamples = 2\nvalue = [1, 3]"] ;
1059 -> 1061 ;
1062 [label="gini = 0.0\nsamples = 1\nvalue = [1, 0]"] ;
1061 -> 1062 ;
1063 [label="gini = 0.0\nsamples = 1\nvalue = [0, 3]"] ;
1061 -> 1063 ;
1064 [label="ChurnScore <= 1.0\ngini = 0.219\nsamples = 4\nvalue = [7, 1]"] ;
1032 -> 1064 ;
1065 [label="Gender <= 0.5\ngini = 0.444\nsamples = 2\nvalue = [2, 1]"] ;
1064 -> 1065 ;
1066 [label="gini = 0.0\nsamples = 1\nvalue = [0, 1]"] ;
1065 -> 1066 ;
1067 [label="gini = 0.0\nsamples = 1\nvalue = [2, 0]"] ;
1065 -> 1067 ;
1068 [label="gini = 0.0\nsamples = 2\nvalue = [5, 0]"] ;
1064 -> 1068 ;
1069 [label="EstimatedYearlyIncome <= 5.5\ngini = 0.444\nsamples = 65\nvalue = [32, 64]"] ;
1031 -> 1069 ;
1070 [label="Gender <= 0.5\ngini = 0.489\nsamples = 46\nvalue = [29, 39]"] ;
1069 -> 1070 ;
1071 [label="EstimatedYearlyIncome <= 4.5\ngini = 0.497\nsamples = 18\nvalue = [14, 12]"] ;
1070 -> 1071 ;
1072 [label="ChurnScore <= 1.0\ngini = 0.499\nsamples = 15\nvalue = [11, 12]"] ;
1071 -> 1072 ;
1073 [label="Age <= 15.0\ngini = 0.18\nsamples = 5\nvalue = [1, 9]"] ;
1072 -> 1073 ;
1074 [label="gini = 0.0\nsamples = 1\nvalue = [1, 0]"] ;
1073 -> 1074 ;
1075 [label="gini = 0.0\nsamples = 4\nvalue = [0, 9]"] ;
1073 -> 1075 ;
1076 [label="Age <= 14.5\ngini = 0.355\nsamples = 10\nvalue = [10, 3]"] ;
1072 -> 1076 ;
1077 [label="gini = 0.0\nsamples = 1\nvalue = [0, 1]"] ;
1076 -> 1077 ;
1078 [label="Available401K <= 0.5\ngini = 0.278\nsamples = 9\nvalue = [10, 2]"] ;
1076 -> 1078 ;
1079 [label="Age <= 16.5\ngini = 0.32\nsamples = 5\nvalue = [4, 1]"] ;
1078 -> 1079 ;
1080 [label="Age <= 15.5\ngini = 0.444\nsamples = 3\nvalue = [2, 1]"] ;
1079 -> 1080 ;
1081 [label="gini = 0.0\nsamples = 1\nvalue = [1, 0]"] ;
1080 -> 1081 ;
1082 [label="gini = 0.5\nsamples = 2\nvalue = [1, 1]"] ;
1080 -> 1082 ;
1083 [label="gini = 0.0\nsamples = 2\nvalue = [2, 0]"] ;
1079 -> 1083 ;
1084 [label="gini = 0.245\nsamples = 4\nvalue = [6, 1]"] ;
1078 -> 1084 ;
1085 [label="gini = 0.0\nsamples = 3\nvalue = [3, 0]"] ;
1071 -> 1085 ;
1086 [label="Available401K <= 0.5\ngini = 0.459\nsamples = 28\nvalue = [15, 27]"] ;
1070 -> 1086 ;
1087 [label="Age <= 17.5\ngini = 0.497\nsamples = 20\nvalue = [12, 14]"] ;
1086 -> 1087 ;
1088 [label="ChurnScore <= 1.0\ngini = 0.444\nsamples = 15\nvalue = [7, 14]"] ;
1087 -> 1088 ;
1089 [label="Products <= 3.5\ngini = 0.49\nsamples = 9\nvalue = [6, 8]"] ;
1088 -> 1089 ;
1090 [label="gini = 0.0\nsamples = 1\nvalue = [1, 0]"] ;
1089 -> 1090 ;
1091 [label="CallActivity <= 3.5\ngini = 0.473\nsamples = 8\nvalue = [5, 8]"] ;
1089 -> 1091 ;
1092 [label="EstimatedYearlyIncome <= 4.0\ngini = 0.496\nsamples = 7\nvalue = [5, 6]"] ;
1091 -> 1092 ;
1093 [label="Age <= 14.5\ngini = 0.469\nsamples = 5\nvalue = [3, 5]"] ;
1092 -> 1093 ;
1094 [label="gini = 0.0\nsamples = 1\nvalue = [0, 3]"] ;
1093 -> 1094 ;
1095 [label="Age <= 16.5\ngini = 0.48\nsamples = 4\nvalue = [3, 2]"] ;
1093 -> 1095 ;
1096 [label="gini = 0.375\nsamples = 3\nvalue = [3, 1]"] ;
1095 -> 1096 ;
1097 [label="gini = 0.0\nsamples = 1\nvalue = [0, 1]"] ;
1095 -> 1097 ;
1098 [label="Age <= 15.0\ngini = 0.444\nsamples = 2\nvalue = [2, 1]"] ;
1092 -> 1098 ;
1099 [label="gini = 0.0\nsamples = 1\nvalue = [2, 0]"] ;
1098 -> 1099 ;
1100 [label="gini = 0.0\nsamples = 1\nvalue = [0, 1]"] ;
1098 -> 1100 ;
1101 [label="gini = 0.0\nsamples = 1\nvalue = [0, 2]"] ;
1091 -> 1101 ;
1102 [label="Products <= 3.5\ngini = 0.245\nsamples = 6\nvalue = [1, 6]"] ;
1088 -> 1102 ;
1103 [label="gini = 0.0\nsamples = 2\nvalue = [0, 3]"] ;
1102 -> 1103 ;
1104 [label="Age <= 15.0\ngini = 0.375\nsamples = 4\nvalue = [1, 3]"] ;
1102 -> 1104 ;
1105 [label="gini = 0.0\nsamples = 2\nvalue = [0, 2]"] ;
1104 -> 1105 ;
1106 [label="Age <= 16.5\ngini = 0.5\nsamples = 2\nvalue = [1, 1]"] ;
1104 -> 1106 ;
1107 [label="gini = 0.0\nsamples = 1\nvalue = [1, 0]"] ;
1106 -> 1107 ;
1108 [label="gini = 0.0\nsamples = 1\nvalue = [0, 1]"] ;
1106 -> 1108 ;
1109 [label="gini = 0.0\nsamples = 5\nvalue = [5, 0]"] ;
1087 -> 1109 ;
1110 [label="Age <= 19.0\ngini = 0.305\nsamples = 8\nvalue = [3, 13]"] ;
1086 -> 1110 ;
1111 [label="gini = 0.0\nsamples = 7\nvalue = [0, 13]"] ;
1110 -> 1111 ;
1112 [label="gini = 0.0\nsamples = 1\nvalue = [3, 0]"] ;
1110 -> 1112 ;
1113 [label="Gender <= 0.5\ngini = 0.191\nsamples = 19\nvalue = [3, 25]"] ;
1069 -> 1113 ;
1114 [label="Age <= 12.5\ngini = 0.198\nsamples = 12\nvalue = [2, 16]"] ;
1113 -> 1114 ;
1115 [label="Available401K <= 0.5\ngini = 0.5\nsamples = 3\nvalue = [2, 2]"] ;
1114 -> 1115 ;
1116 [label="gini = 0.444\nsamples = 2\nvalue = [1, 2]"] ;
1115 -> 1116 ;
1117 [label="gini = 0.0\nsamples = 1\nvalue = [1, 0]"] ;
1115 -> 1117 ;
1118 [label="gini = 0.0\nsamples = 9\nvalue = [0, 14]"] ;
1114 -> 1118 ;
1119 [label="Available401K <= 0.5\ngini = 0.18\nsamples = 7\nvalue = [1, 9]"] ;
1113 -> 1119 ;
1120 [label="Age <= 15.5\ngini = 0.245\nsamples = 5\nvalue = [1, 6]"] ;
1119 -> 1120 ;
1121 [label="gini = 0.0\nsamples = 4\nvalue = [0, 6]"] ;
1120 -> 1121 ;
1122 [label="gini = 0.0\nsamples = 1\nvalue = [1, 0]"] ;
1120 -> 1122 ;
1123 [label="gini = 0.0\nsamples = 2\nvalue = [0, 3]"] ;
1119 -> 1123 ;
1124 [label="Age <= 14.5\ngini = 0.157\nsamples = 20\nvalue = [3, 32]"] ;
1030 -> 1124 ;
1125 [label="Gender <= 0.5\ngini = 0.111\nsamples = 19\nvalue = [2, 32]"] ;
1124 -> 1125 ;
1126 [label="gini = 0.0\nsamples = 9\nvalue = [0, 16]"] ;
1125 -> 1126 ;
1127 [label="CallActivity <= 3.5\ngini = 0.198\nsamples = 10\nvalue = [2, 16]"] ;
1125 -> 1127 ;
1128 [label="gini = 0.0\nsamples = 5\nvalue = [0, 8]"] ;
1127 -> 1128 ;
1129 [label="Age <= 11.0\ngini = 0.32\nsamples = 5\nvalue = [2, 8]"] ;
1127 -> 1129 ;
1130 [label="gini = 0.444\nsamples = 2\nvalue = [2, 4]"] ;
1129 -> 1130 ;
1131 [label="gini = 0.0\nsamples = 3\nvalue = [0, 4]"] ;
1129 -> 1131 ;
1132 [label="gini = 0.0\nsamples = 1\nvalue = [1, 0]"] ;
1124 -> 1132 ;
1133 [label="ChurnScore <= 1.5\ngini = 0.407\nsamples = 331\nvalue = [152, 383]"] ;
1003 -> 1133 ;
1134 [label="WebActivity <= 0.5\ngini = 0.459\nsamples = 191\nvalue = [108, 195]"] ;
1133 -> 1134 ;
1135 [label="EstimatedYearlyIncome <= 4.0\ngini = 0.429\nsamples = 174\nvalue = [86, 190]"] ;
1134 -> 1135 ;
1136 [label="ChurnScore <= 0.5\ngini = 0.467\nsamples = 119\nvalue = [72, 122]"] ;
1135 -> 1136 ;
1137 [label="CallActivity <= 1.5\ngini = 0.471\nsamples = 50\nvalue = [35, 57]"] ;
1136 -> 1137 ;
1138 [label="Gender <= 0.5\ngini = 0.465\nsamples = 45\nvalue = [32, 55]"] ;
1137 -> 1138 ;
1139 [label="Age <= 23.5\ngini = 0.449\nsamples = 26\nvalue = [16, 31]"] ;
1138 -> 1139 ;
1140 [label="Available401K <= 0.5\ngini = 0.444\nsamples = 7\nvalue = [10, 5]"] ;
1139 -> 1140 ;
1141 [label="gini = 0.0\nsamples = 1\nvalue = [1, 0]"] ;
1140 -> 1141 ;
1142 [label="gini = 0.459\nsamples = 6\nvalue = [9, 5]"] ;
1140 -> 1142 ;
1143 [label="Age <= 25.5\ngini = 0.305\nsamples = 19\nvalue = [6, 26]"] ;
1139 -> 1143 ;
1144 [label="Age <= 24.5\ngini = 0.426\nsamples = 10\nvalue = [4, 9]"] ;
1143 -> 1144 ;
1145 [label="gini = 0.0\nsamples = 1\nvalue = [0, 1]"] ;
1144 -> 1145 ;
1146 [label="gini = 0.444\nsamples = 9\nvalue = [4, 8]"] ;
1144 -> 1146 ;
1147 [label="Age <= 26.5\ngini = 0.188\nsamples = 9\nvalue = [2, 17]"] ;
1143 -> 1147 ;
1148 [label="gini = 0.0\nsamples = 4\nvalue = [0, 8]"] ;
1147 -> 1148 ;
1149 [label="gini = 0.298\nsamples = 5\nvalue = [2, 9]"] ;
1147 -> 1149 ;
1150 [label="Available401K <= 0.5\ngini = 0.48\nsamples = 19\nvalue = [16, 24]"] ;
1138 -> 1150 ;
1151 [label="gini = 0.0\nsamples = 1\nvalue = [0, 2]"] ;
1150 -> 1151 ;
1152 [label="Age <= 24.5\ngini = 0.488\nsamples = 18\nvalue = [16, 22]"] ;
1150 -> 1152 ;
1153 [label="Age <= 23.5\ngini = 0.165\nsamples = 5\nvalue = [10, 1]"] ;
1152 -> 1153 ;
1154 [label="Age <= 22.5\ngini = 0.198\nsamples = 4\nvalue = [8, 1]"] ;
1153 -> 1154 ;
1155 [label="gini = 0.0\nsamples = 1\nvalue = [1, 0]"] ;
1154 -> 1155 ;
1156 [label="gini = 0.219\nsamples = 3\nvalue = [7, 1]"] ;
1154 -> 1156 ;
1157 [label="gini = 0.0\nsamples = 1\nvalue = [2, 0]"] ;
1153 -> 1157 ;
1158 [label="Age <= 25.5\ngini = 0.346\nsamples = 13\nvalue = [6, 21]"] ;
1152 -> 1158 ;
1159 [label="gini = 0.463\nsamples = 4\nvalue = [4, 7]"] ;
1158 -> 1159 ;
1160 [label="Age <= 26.5\ngini = 0.219\nsamples = 9\nvalue = [2, 14]"] ;
1158 -> 1160 ;
1161 [label="gini = 0.298\nsamples = 6\nvalue = [2, 9]"] ;
1160 -> 1161 ;
1162 [label="gini = 0.0\nsamples = 3\nvalue = [0, 5]"] ;
1160 -> 1162 ;
1163 [label="Gender <= 0.5\ngini = 0.48\nsamples = 5\nvalue = [3, 2]"] ;
1137 -> 1163 ;
1164 [label="Available401K <= 0.5\ngini = 0.444\nsamples = 3\nvalue = [2, 1]"] ;
1163 -> 1164 ;
1165 [label="Age <= 25.0\ngini = 0.5\nsamples = 2\nvalue = [1, 1]"] ;
1164 -> 1165 ;
1166 [label="gini = 0.0\nsamples = 1\nvalue = [1, 0]"] ;
1165 -> 1166 ;
1167 [label="gini = 0.0\nsamples = 1\nvalue = [0, 1]"] ;
1165 -> 1167 ;
1168 [label="gini = 0.0\nsamples = 1\nvalue = [1, 0]"] ;
1164 -> 1168 ;
1169 [label="Age <= 24.5\ngini = 0.5\nsamples = 2\nvalue = [1, 1]"] ;
1163 -> 1169 ;
1170 [label="gini = 0.0\nsamples = 1\nvalue = [1, 0]"] ;
1169 -> 1170 ;
1171 [label="gini = 0.0\nsamples = 1\nvalue = [0, 1]"] ;
1169 -> 1171 ;
1172 [label="Available401K <= 0.5\ngini = 0.462\nsamples = 69\nvalue = [37, 65]"] ;
1136 -> 1172 ;
1173 [label="CallActivity <= 1.5\ngini = 0.153\nsamples = 9\nvalue = [1, 11]"] ;
1172 -> 1173 ;
1174 [label="gini = 0.0\nsamples = 7\nvalue = [0, 10]"] ;
1173 -> 1174 ;
1175 [label="Age <= 24.0\ngini = 0.5\nsamples = 2\nvalue = [1, 1]"] ;
1173 -> 1175 ;
1176 [label="gini = 0.0\nsamples = 1\nvalue = [0, 1]"] ;
1175 -> 1176 ;
1177 [label="gini = 0.0\nsamples = 1\nvalue = [1, 0]"] ;
1175 -> 1177 ;
1178 [label="EstimatedYearlyIncome <= 2.5\ngini = 0.48\nsamples = 60\nvalue = [36, 54]"] ;
1172 -> 1178 ;
1179 [label="Products <= 3.0\ngini = 0.245\nsamples = 7\nvalue = [2, 12]"] ;
1178 -> 1179 ;
1180 [label="gini = 0.0\nsamples = 2\nvalue = [0, 2]"] ;
1179 -> 1180 ;
1181 [label="Gender <= 0.5\ngini = 0.278\nsamples = 5\nvalue = [2, 10]"] ;
1179 -> 1181 ;
1182 [label="gini = 0.0\nsamples = 1\nvalue = [0, 3]"] ;
1181 -> 1182 ;
1183 [label="gini = 0.346\nsamples = 4\nvalue = [2, 7]"] ;
1181 -> 1183 ;
1184 [label="Gender <= 0.5\ngini = 0.494\nsamples = 53\nvalue = [34, 42]"] ;
1178 -> 1184 ;
1185 [label="CallActivity <= 1.5\ngini = 0.494\nsamples = 25\nvalue = [17, 21]"] ;
1184 -> 1185 ;
1186 [label="Age <= 23.5\ngini = 0.497\nsamples = 24\nvalue = [17, 20]"] ;
1185 -> 1186 ;
1187 [label="gini = 0.0\nsamples = 3\nvalue = [0, 5]"] ;
1186 -> 1187 ;
1188 [label="Age <= 26.5\ngini = 0.498\nsamples = 21\nvalue = [17, 15]"] ;
1186 -> 1188 ;
1189 [label="Age <= 24.5\ngini = 0.477\nsamples = 19\nvalue = [17, 11]"] ;
1188 -> 1189 ;
1190 [label="gini = 0.473\nsamples = 9\nvalue = [5, 8]"] ;
1189 -> 1190 ;
1191 [label="Age <= 25.5\ngini = 0.32\nsamples = 10\nvalue = [12, 3]"] ;
1189 -> 1191 ;
1192 [label="gini = 0.0\nsamples = 5\nvalue = [9, 0]"] ;
1191 -> 1192 ;
1193 [label="gini = 0.5\nsamples = 5\nvalue = [3, 3]"] ;
1191 -> 1193 ;
1194 [label="gini = 0.0\nsamples = 2\nvalue = [0, 4]"] ;
1188 -> 1194 ;
1195 [label="gini = 0.0\nsamples = 1\nvalue = [0, 1]"] ;
1185 -> 1195 ;
1196 [label="CallActivity <= 1.5\ngini = 0.494\nsamples = 28\nvalue = [17, 21]"] ;
1184 -> 1196 ;
1197 [label="Age <= 23.5\ngini = 0.494\nsamples = 26\nvalue = [16, 20]"] ;
1196 -> 1197 ;
1198 [label="gini = 0.0\nsamples = 3\nvalue = [0, 4]"] ;
1197 -> 1198 ;
1199 [label="Age <= 26.5\ngini = 0.5\nsamples = 23\nvalue = [16, 16]"] ;
1197 -> 1199 ;
1200 [label="Age <= 25.5\ngini = 0.495\nsamples = 21\nvalue = [16, 13]"] ;
1199 -> 1200 ;
1201 [label="Age <= 24.5\ngini = 0.5\nsamples = 14\nvalue = [10, 10]"] ;
1200 -> 1201 ;
1202 [label="gini = 0.48\nsamples = 3\nvalue = [3, 2]"] ;
1201 -> 1202 ;
1203 [label="gini = 0.498\nsamples = 11\nvalue = [7, 8]"] ;
1201 -> 1203 ;
1204 [label="gini = 0.444\nsamples = 7\nvalue = [6, 3]"] ;
1200 -> 1204 ;
1205 [label="gini = 0.0\nsamples = 2\nvalue = [0, 3]"] ;
1199 -> 1205 ;
1206 [label="Age <= 24.0\ngini = 0.5\nsamples = 2\nvalue = [1, 1]"] ;
1196 -> 1206 ;
1207 [label="gini = 0.0\nsamples = 1\nvalue = [0, 1]"] ;
1206 -> 1207 ;
1208 [label="gini = 0.0\nsamples = 1\nvalue = [1, 0]"] ;
1206 -> 1208 ;
1209 [label="MaritalStatus <= 0.5\ngini = 0.283\nsamples = 55\nvalue = [14, 68]"] ;
1135 -> 1209 ;
1210 [label="Age <= 19.5\ngini = 0.32\nsamples = 48\nvalue = [14, 56]"] ;
1209 -> 1210 ;
1211 [label="EstimatedYearlyIncome <= 5.5\ngini = 0.49\nsamples = 9\nvalue = [8, 6]"] ;
1210 -> 1211 ;
1212 [label="Gender <= 0.5\ngini = 0.48\nsamples = 3\nvalue = [3, 2]"] ;
1211 -> 1212 ;
1213 [label="gini = 0.5\nsamples = 2\nvalue = [2, 2]"] ;
1212 -> 1213 ;
1214 [label="gini = 0.0\nsamples = 1\nvalue = [1, 0]"] ;
1212 -> 1214 ;
1215 [label="Gender <= 0.5\ngini = 0.494\nsamples = 6\nvalue = [5, 4]"] ;
1211 -> 1215 ;
1216 [label="Available401K <= 0.5\ngini = 0.444\nsamples = 5\nvalue = [2, 4]"] ;
1215 -> 1216 ;
1217 [label="gini = 0.0\nsamples = 1\nvalue = [0, 2]"] ;
1216 -> 1217 ;
1218 [label="gini = 0.5\nsamples = 4\nvalue = [2, 2]"] ;
1216 -> 1218 ;
1219 [label="gini = 0.0\nsamples = 1\nvalue = [3, 0]"] ;
1215 -> 1219 ;
1220 [label="Available401K <= 0.5\ngini = 0.191\nsamples = 39\nvalue = [6, 50]"] ;
1210 -> 1220 ;
1221 [label="Products <= 3.5\ngini = 0.375\nsamples = 9\nvalue = [3, 9]"] ;
1220 -> 1221 ;
1222 [label="Age <= 20.5\ngini = 0.397\nsamples = 8\nvalue = [3, 8]"] ;
1221 -> 1222 ;
1223 [label="CallActivity <= 2.5\ngini = 0.375\nsamples = 3\nvalue = [3, 1]"] ;
1222 -> 1223 ;
1224 [label="gini = 0.0\nsamples = 2\nvalue = [3, 0]"] ;
1223 -> 1224 ;
1225 [label="gini = 0.0\nsamples = 1\nvalue = [0, 1]"] ;
1223 -> 1225 ;
1226 [label="gini = 0.0\nsamples = 5\nvalue = [0, 7]"] ;
1222 -> 1226 ;
1227 [label="gini = 0.0\nsamples = 1\nvalue = [0, 1]"] ;
1221 -> 1227 ;
1228 [label="Gender <= 0.5\ngini = 0.127\nsamples = 30\nvalue = [3, 41]"] ;
1220 -> 1228 ;
1229 [label="Products <= 3.5\ngini = 0.1\nsamples = 15\nvalue = [1, 18]"] ;
1228 -> 1229 ;
1230 [label="EstimatedYearlyIncome <= 6.0\ngini = 0.111\nsamples = 13\nvalue = [1, 16]"] ;
1229 -> 1230 ;
1231 [label="Age <= 20.5\ngini = 0.117\nsamples = 12\nvalue = [1, 15]"] ;
1230 -> 1231 ;
1232 [label="gini = 0.18\nsamples = 8\nvalue = [1, 9]"] ;
1231 -> 1232 ;
1233 [label="gini = 0.0\nsamples = 4\nvalue = [0, 6]"] ;
1231 -> 1233 ;
1234 [label="gini = 0.0\nsamples = 1\nvalue = [0, 1]"] ;
1230 -> 1234 ;
1235 [label="gini = 0.0\nsamples = 2\nvalue = [0, 2]"] ;
1229 -> 1235 ;
1236 [label="Products <= 3.5\ngini = 0.147\nsamples = 15\nvalue = [2, 23]"] ;
1228 -> 1236 ;
1237 [label="Age <= 20.5\ngini = 0.188\nsamples = 12\nvalue = [2, 17]"] ;
1236 -> 1237 ;
1238 [label="gini = 0.0\nsamples = 6\nvalue = [0, 11]"] ;
1237 -> 1238 ;
1239 [label="Age <= 21.5\ngini = 0.375\nsamples = 6\nvalue = [2, 6]"] ;
1237 -> 1239 ;
1240 [label="gini = 0.444\nsamples = 5\nvalue = [2, 4]"] ;
1239 -> 1240 ;
